{"learner":{"attributes":{"best_iteration":"99","best_ntree_limit":"100","scikit_learn":"{\"n_estimators\": 100, \"objective\": \"reg:squarederror\", \"max_depth\": null, \"learning_rate\": null, \"verbosity\": null, \"booster\": null, \"tree_method\": null, \"gamma\": null, \"min_child_weight\": null, \"max_delta_step\": null, \"subsample\": null, \"colsample_bytree\": null, \"colsample_bylevel\": null, \"colsample_bynode\": null, \"reg_alpha\": null, \"reg_lambda\": null, \"scale_pos_weight\": null, \"base_score\": null, \"missing\": NaN, \"num_parallel_tree\": null, \"random_state\": 1234, \"n_jobs\": null, \"monotone_constraints\": null, \"interaction_constraints\": null, \"importance_type\": null, \"gpu_id\": null, \"validate_parameters\": null, \"predictor\": null, \"enable_categorical\": false, \"_estimator_type\": \"regressor\"}"},"feature_names":["host_response_time","room_type","host_has_profile_pic","host_identity_verified","bathrooms_text","bedrooms","beds","review_scores_rating","review_scores_accuracy","review_scores_cleanliness","review_scores_checkin","review_scores_communication","review_scores_location","review_scores_value","instant_bookable","has_wifi","has_pool","has_kitchen","has_washer","has_dryer","has_ac","has_self_checkin","has_workspace","has_pet_allowed","has_free_parking","host_response_rate","host_acceptance_rate","host_listings_count","accommodates","minimum_nights","maximum_nights","number_of_reviews","number_of_reviews_ltm","calculated_host_listings_count","calculated_host_listings_count_entire_homes","calculated_host_listings_count_private_rooms","calculated_host_listings_count_shared_rooms","reviews_per_month","name_len","neighborhood_overview_len","host_verifications_len","month"],"feature_types":["int","int","int","int","int","int","int","int","int","int","int","int","int","int","int","int","int","int","int","int","int","int","int","int","int","float","float","float","float","float","float","float","float","float","float","float","float","float","float","float","float","float"],"gradient_booster":{"model":{"gbtree_model_param":{"num_trees":"100","size_leaf_vector":"0"},"tree_info":[0,0,0,0,0,0,0,0,0,0,0,0,0,0,0,0,0,0,0,0,0,0,0,0,0,0,0,0,0,0,0,0,0,0,0,0,0,0,0,0,0,0,0,0,0,0,0,0,0,0,0,0,0,0,0,0,0,0,0,0,0,0,0,0,0,0,0,0,0,0,0,0,0,0,0,0,0,0,0,0,0,0,0,0,0,0,0,0,0,0,0,0,0,0,0,0,0,0,0,0],"trees":[{"base_weights":[5.157418E0,4.7726293E0,5.6463485E0,4.537801E0,4.961519E0,5.4469194E0,6.2439685E0,4.6204224E0,4.103271E0,5.2343874E0,4.870953E0,5.248502E0,5.6362534E0,6.056876E0,6.867415E0,4.4621315E0,4.769391E0,4.235491E0,3.85319E0,5.287486E0,4.6295643E0,4.910157E0,4.472849E0,5.2956266E0,3.9552782E0,6.4117236E0,5.5590343E0,5.794273E0,6.269382E0,6.4899063E0,7.0277963E0,4.5243435E0,4.228717E0,4.633661E0,4.908168E0,4.043534E0,4.300242E0,3.8323252E0,7.044937E0,6.0096087E0,5.2403464E0,4.532359E0,5.0642576E0,4.8200297E0,5.011149E0,4.3865633E0,4.6991434E0,5.16269E0,5.381931E0,3.7351046E0,5.097718E0,5.993169E0,7.9025526E0,3.2208433E0,5.574728E0,5.672195E0,5.940307E0,6.1334844E0,6.8529053E0,6.813341E0,6.345193E0,6.7414007E0,7.2419834E0,4.480674E0,4.73059E0,4.099322E0,4.448566E0,3.9749844E0,4.6533465E0,5.0403986E0,4.759011E0,3.9122212E0,4.1245537E0,4.291462E0,6.1093726E0,3.5432255E0,3.9192288E0,5.3725777E0,7.658892E0,5.4536195E0,5.0487857E0,4.477661E0,4.879855E0,4.97467E0,6.831699E0,4.663224E0,4.870709E0,5.027442E0,4.5091996E0,4.400335E0,3.9838085E0,4.6777773E0,5.515131E0,5.0455756E0,5.2537966E0,5.342604E0,5.6744137E0,4.0195184E0,3.1201744E0,5.5575423E0,3.4688363E0,5.5984344E0,6.389916E0,3.0241907E0,3.944982E0,5.505293E0,6.0013194E0,5.5654616E0,5.866669E0,5.913594E0,6.621374E0,5.97682E0,6.298448E0,8.665313E0,6.565025E0,6.855673E0,5.4418674E0,6.0460105E0,6.8825493E0,7.331563E0,6.6858144E0],"categories":[],"categories_nodes":[],"categories_segments":[],"categories_sizes":[],"default_left":[true,true,true,true,true,true,true,true,true,true,true,true,true,true,true,true,true,true,true,true,true,true,true,true,true,true,true,true,true,true,true,true,true,true,true,true,true,true,false,true,true,true,true,true,true,true,true,true,true,true,true,true,false,true,true,true,true,true,true,true,false,true,true,false,false,false,false,false,false,false,false,false,false,false,false,false,false,false,false,false,false,false,false,false,false,false,false,false,false,false,false,false,false,false,false,false,false,false,false,false,false,false,false,false,false,false,false,false,false,false,false,false,false,false,false,false,false,false,false,false,false],"id":0,"left_children":[1,3,5,7,9,11,13,15,17,19,21,23,25,27,29,31,33,35,37,39,41,43,45,47,49,51,53,55,57,59,61,63,65,67,69,71,73,75,-1,77,79,81,83,85,87,89,91,93,95,97,99,101,-1,103,105,107,109,111,113,115,-1,117,119,-1,-1,-1,-1,-1,-1,-1,-1,-1,-1,-1,-1,-1,-1,-1,-1,-1,-1,-1,-1,-1,-1,-1,-1,-1,-1,-1,-1,-1,-1,-1,-1,-1,-1,-1,-1,-1,-1,-1,-1,-1,-1,-1,-1,-1,-1,-1,-1,-1,-1,-1,-1,-1,-1,-1,-1,-1,-1],"loss_changes":[5.48145E4,7.2135E3,1.526575E4,2.59225E3,2.2085E3,3.5865E3,3.704125E3,1.419625E3,3.6820312E2,6.985625E2,1.0375E3,2.844375E3,2.913125E3,1.3425625E3,4.0275E2,4.113125E2,5.7E2,7.703125E1,2.4157812E2,6.7275E2,5.4160156E1,5.38375E2,9.84375E1,4.92625E2,3.9775195E2,2.7312969E3,1.625625E3,1.635625E2,1.04E3,6.071875E1,2.6925E2,1.8946875E2,1.5964844E2,1.88E2,2.8253125E2,4.4296875E0,6.3765625E1,8.683594E1,0E0,1.2837148E3,7.6625E2,6.6796875E0,1.7475586E1,2.369375E2,2.154375E2,7.03125E0,3.3007812E0,1.643125E2,2.858125E2,2.3108789E2,1.7920654E2,5.0939062E2,0E0,3.093335E1,1.284875E3,9.290625E1,5.2125E1,2.48625E2,1.2835078E3,1.765625E0,0E0,1.775625E2,9.8109375E1,0E0,0E0,0E0,0E0,0E0,0E0,0E0,0E0,0E0,0E0,0E0,0E0,0E0,0E0,0E0,0E0,0E0,0E0,0E0,0E0,0E0,0E0,0E0,0E0,0E0,0E0,0E0,0E0,0E0,0E0,0E0,0E0,0E0,0E0,0E0,0E0,0E0,0E0,0E0,0E0,0E0,0E0,0E0,0E0,0E0,0E0,0E0,0E0,0E0,0E0,0E0,0E0,0E0,0E0,0E0,0E0,0E0,0E0],"parents":[2147483647,0,0,1,1,2,2,3,3,4,4,5,5,6,6,7,7,8,8,9,9,10,10,11,11,12,12,13,13,14,14,15,15,16,16,17,17,18,18,19,19,20,20,21,21,22,22,23,23,24,24,25,25,26,26,27,27,28,28,29,29,30,30,31,31,32,32,33,33,34,34,35,35,36,36,37,37,39,39,40,40,41,41,42,42,43,43,44,44,45,45,46,46,47,47,48,48,49,49,50,50,51,51,53,53,54,54,55,55,56,56,57,57,58,58,59,59,61,61,62,62],"right_children":[2,4,6,8,10,12,14,16,18,20,22,24,26,28,30,32,34,36,38,40,42,44,46,48,50,52,54,56,58,60,62,64,66,68,70,72,74,76,-1,78,80,82,84,86,88,90,92,94,96,98,100,102,-1,104,106,108,110,112,114,116,-1,118,120,-1,-1,-1,-1,-1,-1,-1,-1,-1,-1,-1,-1,-1,-1,-1,-1,-1,-1,-1,-1,-1,-1,-1,-1,-1,-1,-1,-1,-1,-1,-1,-1,-1,-1,-1,-1,-1,-1,-1,-1,-1,-1,-1,-1,-1,-1,-1,-1,-1,-1,-1,-1,-1,-1,-1,-1,-1,-1],"split_conditions":[1.5E0,3.5E0,7.5E0,8.5E0,8.5E-2,3.5E0,3.5E0,2.5E0,5E-1,2.45E1,1.05E1,1.5E0,1.5E0,3.5E0,3.5E0,1.5E0,7.5E0,1.5E0,2.825E2,1.5E0,3.5E0,1.25E1,4.5E0,5.5E0,4.5E0,6.65E1,1.5E0,2.5E0,1.365E2,1.5E0,4.5E0,3.65E1,5E-1,1.5E0,4E0,1.5E0,1.875E2,1.5E0,2.1134813E0,6.9E1,8.35E1,4.45E1,1.825E2,1.5E0,1.105E2,1.5E0,9E0,5.5E0,2.5E0,1.85E1,5E-1,1.665E2,2.370766E0,1.5E0,2.5E0,2.5E0,2.5E0,2.5E0,1.425E2,2.975E2,1.9035579E0,5E-1,1.4E1,1.3442022E0,1.419177E0,1.2297966E0,1.3345698E0,1.1924953E0,1.396004E0,1.5121197E0,1.4277033E0,1.1736664E0,1.2373662E0,1.2874386E0,1.8328118E0,1.0629677E0,1.1757687E0,1.6117734E0,2.2976677E0,1.6360859E0,1.5146358E0,1.3432984E0,1.4639566E0,1.492401E0,2.0495098E0,1.3989673E0,1.4612128E0,1.5082327E0,1.35276E0,1.3201005E0,1.1951426E0,1.4033332E0,1.6545393E0,1.5136727E0,1.5761391E0,1.6027813E0,1.7023242E0,1.2058556E0,9.360524E-1,1.6672628E0,1.040651E0,1.6795304E0,1.9169749E0,9.0725726E-1,1.1834947E0,1.651588E0,1.8003958E0,1.6696385E0,1.7600008E0,1.7740782E0,1.9864123E0,1.7930461E0,1.8895345E0,2.5995939E0,1.9695076E0,2.056702E0,1.6325603E0,1.8138032E0,2.064765E0,2.199469E0,2.0057445E0],"split_indices":[4,28,28,29,37,9,4,12,35,29,29,1,40,9,9,1,33,12,29,40,6,27,28,28,28,38,28,4,34,32,5,34,20,28,5,7,33,28,0,38,26,29,29,12,38,1,28,27,4,29,36,33,0,0,4,12,35,4,33,27,0,20,29,0,0,0,0,0,0,0,0,0,0,0,0,0,0,0,0,0,0,0,0,0,0,0,0,0,0,0,0,0,0,0,0,0,0,0,0,0,0,0,0,0,0,0,0,0,0,0,0,0,0,0,0,0,0,0,0,0,0],"split_type":[0,0,0,0,0,0,0,0,0,0,0,0,0,0,0,0,0,0,0,0,0,0,0,0,0,0,0,0,0,0,0,0,0,0,0,0,0,0,0,0,0,0,0,0,0,0,0,0,0,0,0,0,0,0,0,0,0,0,0,0,0,0,0,0,0,0,0,0,0,0,0,0,0,0,0,0,0,0,0,0,0,0,0,0,0,0,0,0,0,0,0,0,0,0,0,0,0,0,0,0,0,0,0,0,0,0,0,0,0,0,0,0,0,0,0,0,0,0,0,0,0],"sum_hessian":[2.91499E5,1.63128E5,1.28371E5,7.2732E4,9.0396E4,9.6259E4,3.2112E4,6.1104E4,1.1628E4,2.2512E4,6.7884E4,4.7016E4,4.9243E4,2.4708E4,7.404E3,2.964E4,3.1464E4,7.596E3,4.032E3,2.0688E4,1.824E3,6.1788E4,6.096E3,4.536E4,1.656E3,4.452E3,4.4791E4,1.1064E4,1.3644E4,2.22E3,5.184E3,2.3388E4,6.252E3,1.5924E4,1.554E4,1.932E3,5.664E3,4.008E3,2.4E1,1.26E3,1.9428E4,1.5E3,3.24E2,3.2676E4,2.9112E4,4.428E3,1.668E3,1.788E4,2.748E4,1.392E3,2.64E2,3.48E3,9.72E2,3E2,4.4491E4,6.048E3,5.016E3,1.1076E4,2.568E3,6.72E2,1.548E3,2.232E3,2.952E3,1.932E4,4.068E3,3.948E3,2.304E3,4.68E2,1.5456E4,8.22E3,7.32E3,7.56E2,1.176E3,5.64E3,2.4E1,9.36E2,3.072E3,9.12E2,3.48E2,9.18E3,1.0248E4,1.308E3,1.92E2,3.12E2,1.2E1,8.004E3,2.4672E4,2.8188E4,9.24E2,4.272E3,1.56E2,1.632E3,3.6E1,7.848E3,1.0032E4,2.424E4,3.24E3,9.48E2,4.44E2,2.04E2,6E1,1.752E3,1.728E3,2.4E2,6E1,3.8275E4,6.216E3,3.924E3,2.124E3,4.836E3,1.8E2,5.7E3,5.376E3,3.48E2,2.22E3,6.48E2,2.4E1,3.84E2,1.848E3,2.532E3,4.2E2],"tree_param":{"num_deleted":"0","num_feature":"42","num_nodes":"121","size_leaf_vector":"0"}},{"base_weights":[3.6105263E0,3.3877466E0,4.044896E0,3.1720383E0,3.5301187E0,3.8811038E0,4.4445825E0,3.2374945E0,2.8357859E0,3.427686E0,3.6554763E0,4.0739703E0,3.7216356E0,4.710457E0,4.244415E0,3.3909984E0,3.1510565E0,2.8899271E0,2.1360135E0,3.3600464E0,3.6095731E0,3.686317E0,3.2911057E0,4.665451E0,4.007619E0,3.4603813E0,3.7741184E0,4.5824685E0,4.9622984E0,4.1473937E0,4.587917E0,3.2228239E0,3.4765851E0,3.2004824E0,2.9211364E0,2.50675E0,2.9238157E0,2.4451406E0,2.07398E0,3.3874123E0,3.065683E0,3.626999E0,2.9412043E0,3.8146286E0,3.6179218E0,3.2717924E0,4.8135448E0,4.273908E0,5.603601E0,3.9374385E0,4.2305226E0,3.2785127E0,3.5485156E0,3.6334593E0,3.8407097E0,5.353683E0,4.494944E0,4.770883E0,5.1237173E0,3.965366E0,4.2336535E0,4.555633E0,5.580394E0,3.0771136E0,3.444572E0,3.509341E0,2.9845629E0,3.2860136E0,3.0964386E0,2.5276153E0,2.9680207E0,4.93365E0,2.4704037E0,3.084246E0,2.8565254E0,1.6968275E0,2.4998994E0,1.2816771E0,2.0850215E0,3.4238632E0,3.1918304E0,3.1847003E0,3.0166662E0,3.6434731E0,3.2885969E0,3.404356E0,2.735005E0,3.6202562E0,3.9188817E0,4.4632955E0,3.597255E0,3.1879325E0,3.4462354E0,7.361541E0,3.7882068E0,4.073164E0,4.564956E0,3.8603153E0,4.1716676E0,4.298541E0,3.734029E0,3.0971634E0,3.3387997E0,3.5110087E0,3.8876257E0,3.548645E0,3.7469485E0,3.8629785E0,3.4228156E0,4.8286633E0,6.2586055E0,4.196089E0,4.5639815E0,4.2632675E0,4.8628793E0,4.9408545E0,5.3769546E0,3.7964613E0,4.07558E0,4.0906463E0,4.411194E0,4.106924E0,4.6078E0],"categories":[],"categories_nodes":[],"categories_segments":[],"categories_sizes":[],"default_left":[true,true,true,true,true,true,true,true,true,true,true,true,true,true,true,true,true,true,true,true,true,true,true,true,true,true,true,true,true,true,true,true,true,true,true,true,true,true,true,true,true,true,true,true,true,true,true,true,false,true,true,true,true,true,true,true,true,true,true,true,true,true,false,false,false,false,false,false,false,false,false,false,false,false,false,false,false,false,false,false,false,false,false,false,false,false,false,false,false,false,false,false,false,false,false,false,false,false,false,false,false,false,false,false,false,false,false,false,false,false,false,false,false,false,false,false,false,false,false,false,false,false,false],"id":1,"left_children":[1,3,5,7,9,11,13,15,17,19,21,23,25,27,29,31,33,35,37,39,41,43,45,47,49,51,53,55,57,59,61,63,65,67,69,71,73,75,77,79,81,83,85,87,89,91,93,95,-1,97,99,101,103,105,107,109,111,113,115,117,119,121,-1,-1,-1,-1,-1,-1,-1,-1,-1,-1,-1,-1,-1,-1,-1,-1,-1,-1,-1,-1,-1,-1,-1,-1,-1,-1,-1,-1,-1,-1,-1,-1,-1,-1,-1,-1,-1,-1,-1,-1,-1,-1,-1,-1,-1,-1,-1,-1,-1,-1,-1,-1,-1,-1,-1,-1,-1,-1,-1,-1,-1],"loss_changes":[2.81945E4,5.90625E3,6.45175E3,1.67725E3,1.477875E3,2.140875E3,1.5083125E3,8.4025E2,4.6714062E2,7.73875E2,5.7425E2,1.2260625E3,5.1325E2,3.7453125E2,5.273125E2,3.21125E2,4.5703125E2,1.4321094E2,1.2206543E1,3.64875E2,1.90875E2,4.0825E2,1.0424609E2,1.1489219E3,4.295625E2,9.1484375E1,2.853125E2,5.284375E2,1.035E2,1.8409375E2,8.9953125E1,2.4146094E2,2.359375E2,2.9034375E2,1.2668359E2,7.152197E1,1.06109375E2,1.6997681E0,3.9499512E0,2.92875E2,1.35703125E1,8.2015625E1,3.3187256E1,3.2432812E2,5.324375E2,4.801172E1,1.00128174E2,1.1327344E2,0E0,3.760625E2,2.1417188E2,1.2761719E1,4.1308594E1,8.571875E1,1.8840625E2,3.6363867E2,1.3264062E2,6.841406E1,7.683594E1,6.138672E1,2.0195312E2,6.284375E1,0E0,0E0,0E0,0E0,0E0,0E0,0E0,0E0,0E0,0E0,0E0,0E0,0E0,0E0,0E0,0E0,0E0,0E0,0E0,0E0,0E0,0E0,0E0,0E0,0E0,0E0,0E0,0E0,0E0,0E0,0E0,0E0,0E0,0E0,0E0,0E0,0E0,0E0,0E0,0E0,0E0,0E0,0E0,0E0,0E0,0E0,0E0,0E0,0E0,0E0,0E0,0E0,0E0,0E0,0E0,0E0,0E0,0E0,0E0,0E0,0E0],"parents":[2147483647,0,0,1,1,2,2,3,3,4,4,5,5,6,6,7,7,8,8,9,9,10,10,11,11,12,12,13,13,14,14,15,15,16,16,17,17,18,18,19,19,20,20,21,21,22,22,23,23,24,24,25,25,26,26,27,27,28,28,29,29,30,30,31,31,32,32,33,33,34,34,35,35,36,36,37,37,38,38,39,39,40,40,41,41,42,42,43,43,44,44,45,45,46,46,47,47,49,49,50,50,51,51,52,52,53,53,54,54,55,55,56,56,57,57,58,58,59,59,60,60,61,61],"right_children":[2,4,6,8,10,12,14,16,18,20,22,24,26,28,30,32,34,36,38,40,42,44,46,48,50,52,54,56,58,60,62,64,66,68,70,72,74,76,78,80,82,84,86,88,90,92,94,96,-1,98,100,102,104,106,108,110,112,114,116,118,120,122,-1,-1,-1,-1,-1,-1,-1,-1,-1,-1,-1,-1,-1,-1,-1,-1,-1,-1,-1,-1,-1,-1,-1,-1,-1,-1,-1,-1,-1,-1,-1,-1,-1,-1,-1,-1,-1,-1,-1,-1,-1,-1,-1,-1,-1,-1,-1,-1,-1,-1,-1,-1,-1,-1,-1,-1,-1,-1,-1,-1,-1],"split_conditions":[5.5E0,3.5E0,2.5E0,8.5E0,3.5E0,2.85E-1,1.5E0,5.95E-1,8.5E0,1.5E0,1.1E1,1.5E0,1.5E0,3.5E0,3.5E0,5E-1,1.5E0,1.5E0,9.5E1,1.25E1,1.5E0,6.75E1,7.3E1,6.65E1,6.5E0,1.5E0,5E-1,1.5E0,4.5E0,2.5E0,4.5E0,7.5E0,3.94E2,3E0,1.5E0,1.5E0,5E-1,1.5E0,1.35E2,4.5E0,1.5E0,1.75E1,4.5E0,2.35E1,1.5E0,1.5E0,9.35E1,1.665E2,1.6810803E0,1.265E2,2.85E1,1.5E0,3.5E0,2.5E0,2.85E1,7E1,5.5E0,5E-1,5.6E1,7.5E0,3.5E0,3.5E0,1.6741182E0,9.2313415E-1,1.0333717E0,1.0528023E0,8.953689E-1,9.8580414E-1,9.2893165E-1,7.582846E-1,8.9040625E-1,1.480095E0,7.411211E-1,9.2527384E-1,8.569577E-1,5.090483E-1,7.4996984E-1,3.8450316E-1,6.2550646E-1,1.027159E0,9.5754915E-1,9.554101E-1,9.049999E-1,1.093042E0,9.865791E-1,1.0213069E0,8.205015E-1,1.0860769E0,1.1756645E0,1.3389887E0,1.0791765E0,9.563798E-1,1.0338707E0,2.2084622E0,1.1364621E0,1.2219492E0,1.3694869E0,1.1580946E0,1.2515004E0,1.2895623E0,1.1202087E0,9.291491E-1,1.00164E0,1.0533026E0,1.1662878E0,1.0645936E0,1.1240846E0,1.1588936E0,1.0268447E0,1.4485991E0,1.8775817E0,1.2588267E0,1.3691945E0,1.2789803E0,1.4588639E0,1.4822564E0,1.6130865E0,1.1389384E0,1.2226741E0,1.227194E0,1.3233582E0,1.2320772E0,1.3823401E0],"split_indices":[28,28,4,29,9,37,31,37,35,4,29,40,4,4,4,20,1,28,26,29,1,26,38,38,28,5,20,40,5,27,8,27,33,5,28,40,32,7,30,5,32,29,27,33,40,4,25,33,0,34,29,12,7,12,29,38,27,20,38,28,29,5,0,0,0,0,0,0,0,0,0,0,0,0,0,0,0,0,0,0,0,0,0,0,0,0,0,0,0,0,0,0,0,0,0,0,0,0,0,0,0,0,0,0,0,0,0,0,0,0,0,0,0,0,0,0,0,0,0,0,0,0,0],"split_type":[0,0,0,0,0,0,0,0,0,0,0,0,0,0,0,0,0,0,0,0,0,0,0,0,0,0,0,0,0,0,0,0,0,0,0,0,0,0,0,0,0,0,0,0,0,0,0,0,0,0,0,0,0,0,0,0,0,0,0,0,0,0,0,0,0,0,0,0,0,0,0,0,0,0,0,0,0,0,0,0,0,0,0,0,0,0,0,0,0,0,0,0,0,0,0,0,0,0,0,0,0,0,0,0,0,0,0,0,0,0,0,0,0,0,0,0,0,0,0,0,0,0,0],"sum_hessian":[2.91499E5,1.92684E5,9.8815E4,7.662E4,1.16064E5,7.0099E4,2.8716E4,6.4128E4,1.2492E4,6.3888E4,5.2176E4,3.1716E4,3.8383E4,1.2324E4,1.6392E4,2.3088E4,4.104E4,1.1592E4,9E2,4.6584E4,1.7304E4,4.8096E4,4.08E3,3.192E3,2.8524E4,6.432E3,3.1951E4,8.184E3,4.14E3,1.2792E4,3.6E3,7.8E3,1.5288E4,3.3768E4,7.272E3,9.48E2,1.0644E4,1.44E2,7.56E2,4.2612E4,3.972E3,1.686E4,4.44E2,1.6704E4,3.1392E4,4.032E3,4.8E1,2.256E3,9.36E2,2.1708E4,6.816E3,2.112E3,4.32E3,1.0284E4,2.1667E4,8.28E2,7.356E3,1.908E3,2.232E3,4.128E3,8.664E3,3.492E3,1.08E2,4.716E3,3.084E3,1.4328E4,9.6E2,1.8516E4,1.5252E4,7.8E2,6.492E3,1.2E1,9.36E2,3.132E3,7.512E3,1.2E1,1.32E2,1.2E1,7.44E2,3.5904E4,6.708E3,1.14E3,2.832E3,1.6068E4,7.92E2,1.32E2,3.12E2,5.844E3,1.086E4,7.44E2,3.0648E4,2.736E3,1.296E3,1.2E1,3.6E1,1.344E3,9.12E2,1.6344E4,5.364E3,5.988E3,8.28E2,5.4E2,1.572E3,3.9E3,4.2E2,5.904E3,4.38E3,2.0563E4,1.104E3,5.28E2,3E2,1.392E3,5.964E3,3E2,1.608E3,1.308E3,9.24E2,1.644E3,2.484E3,4.812E3,3.852E3,3.72E2,3.12E3],"tree_param":{"num_deleted":"0","num_feature":"42","num_nodes":"123","size_leaf_vector":"0"}},{"base_weights":[2.5276089E0,2.3715863E0,2.8318179E0,2.220606E0,2.4712362E0,2.7170238E0,3.1119387E0,2.2646503E0,1.9687622E0,2.5829327E0,2.4043016E0,2.5685682E0,2.8338995E0,3.2491972E0,2.9184985E0,2.165924E0,2.3558958E0,2.031598E0,1.6476264E0,2.6219416E0,2.3544018E0,2.3529842E0,2.5367596E0,2.5165882E0,2.739209E0,3.21559E0,2.7939458E0,3.15453E0,3.461163E0,2.82736E0,3.1123445E0,2.1164644E0,2.294085E0,2.2829797E0,2.4525125E0,2.0274372E0,4.925356E0,1.7779696E0,1.4531202E0,2.6604183E0,2.2968776E0,2.096091E0,2.447802E0,2.2573738E0,2.4022346E0,2.548174E0,2.0366435E0,2.4879136E0,2.6836855E0,2.7777987E0,2.3751268E0,2.969223E0,3.9169917E0,2.6213071E0,2.8430333E0,3.1198466E0,3.8428109E0,3.138138E0,3.5432558E0,2.7179375E0,2.9102435E0,2.8667827E0,3.2194884E0,2.0240781E0,2.220212E0,2.440321E0,2.1647773E0,1.8583595E0,2.297898E0,2.6119332E0,2.3828337E0,2.1546628E0,1.9706773E0,1.615883E0,1.9205263E0,9.2675114E-1,1.4603548E0,2.5898795E0,2.851813E0,2.2834535E0,3.6501236E0,2.0342844E0,2.9756088E0,2.5358815E0,2.0074286E0,2.1272721E0,2.2972195E0,2.2886784E0,2.4488878E0,2.4706125E0,2.6130486E0,1.9446187E0,2.7632055E0,2.50792E0,2.2707064E0,2.8096592E0,2.5080068E0,2.673754E0,2.9632072E0,2.4798048E0,2.132153E0,2.8175015E0,3.2653553E0,3.9342628E0,3.1129932E0,2.6155884E0,5.8777113E0,2.894776E0,2.6116428E0,3.2814405E0,3.0158632E0,4.382386E0,3.2398674E0,3.0434196E0,3.934008E0,3.589956E0,3.096618E0,2.5235317E0,2.7862394E0,2.9005473E0,4.029994E0,3.010387E0,2.5386157E0,3.2632084E0,2.834588E0],"categories":[],"categories_nodes":[],"categories_segments":[],"categories_sizes":[],"default_left":[true,true,true,true,true,true,true,true,true,true,true,true,true,true,true,true,true,true,true,true,true,true,true,true,true,true,true,true,true,true,true,true,true,true,true,true,false,true,true,true,true,true,true,true,true,true,true,true,true,true,true,true,true,true,true,true,true,true,true,true,true,true,true,false,false,false,false,false,false,false,false,false,false,false,false,false,false,false,false,false,false,false,false,false,false,false,false,false,false,false,false,false,false,false,false,false,false,false,false,false,false,false,false,false,false,false,false,false,false,false,false,false,false,false,false,false,false,false,false,false,false,false,false,false,false],"id":2,"left_children":[1,3,5,7,9,11,13,15,17,19,21,23,25,27,29,31,33,35,37,39,41,43,45,47,49,51,53,55,57,59,61,63,65,67,69,71,-1,73,75,77,79,81,83,85,87,89,91,93,95,97,99,101,103,105,107,109,111,113,115,117,119,121,123,-1,-1,-1,-1,-1,-1,-1,-1,-1,-1,-1,-1,-1,-1,-1,-1,-1,-1,-1,-1,-1,-1,-1,-1,-1,-1,-1,-1,-1,-1,-1,-1,-1,-1,-1,-1,-1,-1,-1,-1,-1,-1,-1,-1,-1,-1,-1,-1,-1,-1,-1,-1,-1,-1,-1,-1,-1,-1,-1,-1,-1,-1],"loss_changes":[1.3828875E4,2.8935E3,3.169125E3,8.454375E2,8.615625E2,1.2090312E3,7.5296875E2,5.8234375E2,2.2695312E2,3.8140625E2,4.874375E2,2.6709375E2,5.89E2,3.2596875E2,2.0194531E2,1.9375E2,2.330625E2,1.0489453E2,4.4901855E1,4.5828125E2,1.4804688E2,2.41E2,1.1044531E2,1.06828125E2,9.457031E1,6.2929297E2,2.9340625E2,2.6532812E2,1.2605859E2,6.578125E1,9.087891E1,2.1232812E2,1.5947656E2,1.18125E2,1.5547656E2,6.456641E1,0E0,2.2706543E1,1.5292969E0,4.4073438E2,6.3185547E1,8.597803E1,1.7554492E2,8.742969E1,1.7729688E2,9.317969E1,2.5182373E1,8.2234375E1,6.946094E1,1.1756641E2,1.2440186E1,1.143125E2,1.0976562E0,1.3123828E2,3.2326562E2,1.7603125E2,1.6571143E2,6.770801E1,7.475781E1,3.966797E1,3.8351562E1,4.7259766E1,3.5191406E1,0E0,0E0,0E0,0E0,0E0,0E0,0E0,0E0,0E0,0E0,0E0,0E0,0E0,0E0,0E0,0E0,0E0,0E0,0E0,0E0,0E0,0E0,0E0,0E0,0E0,0E0,0E0,0E0,0E0,0E0,0E0,0E0,0E0,0E0,0E0,0E0,0E0,0E0,0E0,0E0,0E0,0E0,0E0,0E0,0E0,0E0,0E0,0E0,0E0,0E0,0E0,0E0,0E0,0E0,0E0,0E0,0E0,0E0,0E0,0E0,0E0,0E0],"parents":[2147483647,0,0,1,1,2,2,3,3,4,4,5,5,6,6,7,7,8,8,9,9,10,10,11,11,12,12,13,13,14,14,15,15,16,16,17,17,18,18,19,19,20,20,21,21,22,22,23,23,24,24,25,25,26,26,27,27,28,28,29,29,30,30,31,31,32,32,33,33,34,34,35,35,37,37,38,38,39,39,40,40,41,41,42,42,43,43,44,44,45,45,46,46,47,47,48,48,49,49,50,50,51,51,52,52,53,53,54,54,55,55,56,56,57,57,58,58,59,59,60,60,61,61,62,62],"right_children":[2,4,6,8,10,12,14,16,18,20,22,24,26,28,30,32,34,36,38,40,42,44,46,48,50,52,54,56,58,60,62,64,66,68,70,72,-1,74,76,78,80,82,84,86,88,90,92,94,96,98,100,102,104,106,108,110,112,114,116,118,120,122,124,-1,-1,-1,-1,-1,-1,-1,-1,-1,-1,-1,-1,-1,-1,-1,-1,-1,-1,-1,-1,-1,-1,-1,-1,-1,-1,-1,-1,-1,-1,-1,-1,-1,-1,-1,-1,-1,-1,-1,-1,-1,-1,-1,-1,-1,-1,-1,-1,-1,-1,-1,-1,-1,-1,-1,-1,-1,-1,-1,-1,-1,-1],"split_conditions":[5.5E0,3.5E0,2.5E0,2.85E1,2.35E-1,3.5E0,2.75E-1,2.5E0,2.5E0,2.78E2,1.5E0,6.5E0,1.5E0,3.5E0,9.5E0,8.5E0,1.15E1,6.825E2,9.5E0,1.3E1,8.35E1,2.5E0,1.5E0,1.51E2,2.95E1,6.9E1,5E-1,9.95E1,5E-1,2.5E0,5E-1,5E-1,4E0,1.5E0,8.35E1,5E-1,1.4776068E0,4.35E1,1.35E2,4.5E0,1.875E2,9.7E1,4.5E0,1.5E0,1.5E0,2.5E0,1.85E1,1.565E2,5.75E1,3.5E0,2.5E0,1.665E2,2.5E0,1.065E2,2.35E2,6.65E1,4.7E1,7.95E1,2.44E2,5E-1,4.5E0,1.15E1,8.5E0,6.0722345E-1,6.660636E-1,7.320963E-1,6.494332E-1,5.575079E-1,6.8936944E-1,7.8358E-1,7.148501E-1,6.463989E-1,5.912032E-1,4.847649E-1,5.761579E-1,2.7802536E-1,4.3810645E-1,7.769639E-1,8.55544E-1,6.8503606E-1,1.0950371E0,6.1028534E-1,8.926827E-1,7.607645E-1,6.0222864E-1,6.381817E-1,6.891659E-1,6.8660355E-1,7.3466635E-1,7.4118376E-1,7.839146E-1,5.8338565E-1,8.289617E-1,7.52376E-1,6.8121195E-1,8.4289783E-1,7.5240207E-1,8.021262E-1,8.889622E-1,7.439414E-1,6.3964593E-1,8.452505E-1,9.796066E-1,1.1802789E0,9.3389803E-1,7.8467655E-1,1.7633134E0,8.684329E-1,7.8349286E-1,9.8443216E-1,9.04759E-1,1.3147159E0,9.7196025E-1,9.130259E-1,1.1802024E0,1.0769869E0,9.289854E-1,7.570595E-1,8.358719E-1,8.701642E-1,1.2089982E0,9.031161E-1,7.6158476E-1,9.7896254E-1,8.503764E-1],"split_indices":[28,28,4,29,37,12,37,12,35,27,4,28,40,4,28,34,33,29,35,29,33,33,1,33,29,38,20,38,20,12,20,20,5,28,26,32,0,38,30,29,33,26,5,12,9,12,33,27,38,29,13,33,5,38,27,26,27,38,27,20,8,32,29,0,0,0,0,0,0,0,0,0,0,0,0,0,0,0,0,0,0,0,0,0,0,0,0,0,0,0,0,0,0,0,0,0,0,0,0,0,0,0,0,0,0,0,0,0,0,0,0,0,0,0,0,0,0,0,0,0,0,0,0,0,0],"split_type":[0,0,0,0,0,0,0,0,0,0,0,0,0,0,0,0,0,0,0,0,0,0,0,0,0,0,0,0,0,0,0,0,0,0,0,0,0,0,0,0,0,0,0,0,0,0,0,0,0,0,0,0,0,0,0,0,0,0,0,0,0,0,0,0,0,0,0,0,0,0,0,0,0,0,0,0,0,0,0,0,0,0,0,0,0,0,0,0,0,0,0,0,0,0,0,0,0,0,0,0,0,0,0,0,0,0,0,0,0,0,0,0,0,0,0,0,0,0,0,0,0,0,0,0,0],"sum_hessian":[2.91499E5,1.92684E5,9.8815E4,7.662E4,1.16064E5,7.0099E4,2.8716E4,6.5208E4,1.1412E4,4.3476E4,7.2588E4,3.0888E4,3.9211E4,1.6788E4,1.1928E4,3.1332E4,3.3876E4,9.54E3,1.872E3,3.7128E4,6.348E3,5.2332E4,2.0256E4,2.3688E4,7.2E3,3.708E3,3.5503E4,1.1616E4,5.172E3,8.124E3,3.804E3,2.262E4,8.712E3,1.932E4,1.4556E4,9.528E3,1.2E1,1.116E3,7.56E2,3.3192E4,3.936E3,1.692E3,4.656E3,1.7808E4,3.4524E4,1.98E4,4.56E2,2.0232E4,3.456E3,6.504E3,6.96E2,2.748E3,9.6E2,7.872E3,2.7631E4,1.1064E4,5.52E2,1.056E3,4.116E3,3.516E3,4.608E3,1.164E3,2.64E3,1.1976E4,1.0644E4,4.08E3,4.632E3,6.6E2,1.866E4,4.416E3,1.014E4,2.928E3,6.6E3,5.28E2,5.88E2,1.2E1,7.44E2,2.4264E4,8.928E3,3.9E3,3.6E1,1.584E3,1.08E2,3.876E3,7.8E2,4.188E3,1.362E4,1.0068E4,2.4456E4,9.036E3,1.0764E4,4.08E2,4.8E1,1.8516E4,1.716E3,2.004E3,1.452E3,4.176E3,2.328E3,4.8E2,2.16E2,1.824E3,9.24E2,9.36E2,2.4E1,7.86E3,1.2E1,2.2572E4,5.059E3,4.32E3,6.744E3,2.88E2,2.64E2,9.48E2,1.08E2,3.72E3,3.96E2,9.24E2,2.592E3,4.572E3,3.6E1,8.04E2,3.6E2,2.364E3,2.76E2],"tree_param":{"num_deleted":"0","num_feature":"42","num_nodes":"125","size_leaf_vector":"0"}},{"base_weights":[1.769503E0,1.6298378E0,1.9469692E0,1.5676985E0,1.7092172E0,1.87244E0,2.170313E0,1.442281E0,1.6064826E0,2.2710564E0,1.69081E0,1.8140166E0,2.037104E0,2.3283336E0,2.0860367E0,1.3497705E0,1.5358975E0,1.2203593E0,1.6147262E0,1.9344935E0,2.6551433E0,2.055715E0,1.6707286E0,1.3714697E0,1.8326901E0,2.3944998E0,1.9625522E0,2.2644453E0,2.6066658E0,2.0372198E0,2.2844532E0,1.4325141E0,1.2422388E0,1.5858997E0,1.3626673E0,2.2281911E0,1.1846471E0,1.6344782E0,1.498795E0,1.8147079E0,2.155528E0,3.0171869E0,2.4440854E0,4.2580357E0,1.9943898E0,1.7201934E0,1.5291436E0,1.6393327E0,1.1070873E0,1.7337713E0,1.8852348E0,2.8125541E0,2.2673762E0,1.9341626E0,2.5190852E0,2.1946373E0,2.4552605E0,3.0134842E0,2.4346616E0,1.8753997E0,2.0972297E0,2.2631252E0,2.9082437E0,1.3417524E0,1.5495926E0,1.2015439E0,1.4674699E0,1.6680375E0,1.4911498E0,1.3501948E0,3.5614111E0,1.3001782E0,3.0670767E0,1.1379055E0,1.627342E0,1.564434E0,1.6790346E0,1.5261914E0,1.301906E0,1.8241712E0,1.106586E0,2.1252222E0,2.943185E0,2.9319248E0,3.739869E0,2.7261453E0,2.174419E0,1.7316782E0,4.465667E0,1.8576443E0,2.8791287E0,1.6548244E0,1.7993412E0,1.8349547E0,1.4623423E0,1.768028E0,1.2170672E0,1.0539825E0,1.6262183E0,1.6346508E0,1.7904122E0,2.0135999E0,1.8432688E0,3.0927503E0,2.757685E0,2.090253E0,2.3738203E0,2.0581107E0,1.8421382E0,2.5939088E0,2.3621845E0,5.0428643E0,2.1887383E0,2.6726246E0,2.267903E0,3.098998E0,1.5984852E0,2.4942918E0,1.7517103E0,2.0919237E0,1.818008E0,2.1268635E0,1.7264413E0,2.2535048E0,3.2318554E0,2.3274975E0,3.208812E0],"categories":[],"categories_nodes":[],"categories_segments":[],"categories_sizes":[],"default_left":[true,true,true,true,true,true,true,true,true,true,true,true,true,true,true,true,true,true,true,true,true,true,true,true,true,true,true,true,true,true,true,true,true,true,true,true,true,true,true,true,true,true,true,true,true,true,true,true,true,true,true,true,true,true,true,true,true,true,true,true,true,true,true,false,false,false,false,false,false,false,false,false,false,false,false,false,false,false,false,false,false,false,false,false,false,false,false,false,false,false,false,false,false,false,false,false,false,false,false,false,false,false,false,false,false,false,false,false,false,false,false,false,false,false,false,false,false,false,false,false,false,false,false,false,false,false,false],"id":3,"left_children":[1,3,5,7,9,11,13,15,17,19,21,23,25,27,29,31,33,35,37,39,41,43,45,47,49,51,53,55,57,59,61,63,65,67,69,71,73,75,77,79,81,83,85,87,89,91,93,95,97,99,101,103,105,107,109,111,113,115,117,119,121,123,125,-1,-1,-1,-1,-1,-1,-1,-1,-1,-1,-1,-1,-1,-1,-1,-1,-1,-1,-1,-1,-1,-1,-1,-1,-1,-1,-1,-1,-1,-1,-1,-1,-1,-1,-1,-1,-1,-1,-1,-1,-1,-1,-1,-1,-1,-1,-1,-1,-1,-1,-1,-1,-1,-1,-1,-1,-1,-1,-1,-1,-1,-1,-1,-1],"loss_changes":[7.2219375E3,8.0196875E2,2.13275E3,4.4282812E2,7.368125E2,9.22375E2,4.2279688E2,1.8520703E2,2.2048438E2,2.8817578E2,5.0473438E2,5.8471875E2,6.667656E2,1.925625E2,1.9829688E2,9.5072266E1,9.0875E1,5.008838E1,1.5425E2,2.820459E1,7.339307E1,4.7947168E2,4.5775E2,2.0221289E2,3.51125E2,2.2453516E2,3.2465625E2,1.1562891E2,1.38E2,1.5944531E2,4.8353516E1,6.321875E1,4.1691406E1,6.2333984E1,6.1364258E1,3.4158585E1,2.7469238E1,1.7979688E2,5.180664E1,3.2954102E0,3.7945557E0,1.2757568E1,4.5261963E1,4.3148315E1,4.2015332E2,2.4904688E2,3.451953E2,7.550513E1,3.8342896E1,1.2992969E2,2.3609375E2,6.9838867E0,5.7953125E1,2.2261719E2,5.7182617E0,1.0087695E2,9.269629E1,6.9220215E1,5.5291992E1,5.2875E1,1.3109375E2,2.9966797E1,1.5747192E1,0E0,0E0,0E0,0E0,0E0,0E0,0E0,0E0,0E0,0E0,0E0,0E0,0E0,0E0,0E0,0E0,0E0,0E0,0E0,0E0,0E0,0E0,0E0,0E0,0E0,0E0,0E0,0E0,0E0,0E0,0E0,0E0,0E0,0E0,0E0,0E0,0E0,0E0,0E0,0E0,0E0,0E0,0E0,0E0,0E0,0E0,0E0,0E0,0E0,0E0,0E0,0E0,0E0,0E0,0E0,0E0,0E0,0E0,0E0,0E0,0E0,0E0,0E0,0E0],"parents":[2147483647,0,0,1,1,2,2,3,3,4,4,5,5,6,6,7,7,8,8,9,9,10,10,11,11,12,12,13,13,14,14,15,15,16,16,17,17,18,18,19,19,20,20,21,21,22,22,23,23,24,24,25,25,26,26,27,27,28,28,29,29,30,30,31,31,32,32,33,33,34,34,35,35,36,36,37,37,38,38,39,39,40,40,41,41,42,42,43,43,44,44,45,45,46,46,47,47,48,48,49,49,50,50,51,51,52,52,53,53,54,54,55,55,56,56,57,57,58,58,59,59,60,60,61,61,62,62],"right_children":[2,4,6,8,10,12,14,16,18,20,22,24,26,28,30,32,34,36,38,40,42,44,46,48,50,52,54,56,58,60,62,64,66,68,70,72,74,76,78,80,82,84,86,88,90,92,94,96,98,100,102,104,106,108,110,112,114,116,118,120,122,124,126,-1,-1,-1,-1,-1,-1,-1,-1,-1,-1,-1,-1,-1,-1,-1,-1,-1,-1,-1,-1,-1,-1,-1,-1,-1,-1,-1,-1,-1,-1,-1,-1,-1,-1,-1,-1,-1,-1,-1,-1,-1,-1,-1,-1,-1,-1,-1,-1,-1,-1,-1,-1,-1,-1,-1,-1,-1,-1,-1,-1,-1,-1,-1,-1],"split_conditions":[1.5E0,1.05E1,7.5E0,1.5E0,5E-1,1.2E2,4.5E-2,5E-1,1.5E0,5E-1,2E0,2.5E0,1.38E2,1.365E2,3.5E0,2.5E0,1.5E1,1.5E0,2.05E1,1.95E1,1.055E2,5.5E0,4.5E0,5E-1,2.5E0,5E-1,3E0,1.15E1,5E-1,5E-1,4.5E0,1.5E0,3.5E0,1.65E1,5.905E2,3.5E0,5E-1,5E-1,1.5E0,5.1E1,4.5E0,5.5E0,7.85E1,1.5E0,7.55E1,5E-1,7.95E1,3.5E0,5E-1,5E-1,3.6E1,5E0,2.5E0,2.19E2,8.5E0,6.5E0,5.9E1,1.9E1,5.47E2,1.5E0,2.45E1,5E-1,1.5E0,4.0252575E-1,4.648778E-1,3.604632E-1,4.40241E-1,5.004113E-1,4.4734496E-1,4.0505847E-1,1.0684234E0,3.9005348E-1,9.2012304E-1,3.4137166E-1,4.882026E-1,4.6933022E-1,5.037104E-1,4.5785743E-1,3.905718E-1,5.472514E-1,3.3197582E-1,6.375667E-1,8.8295555E-1,8.7957746E-1,1.1219608E0,8.178436E-1,6.523257E-1,5.195035E-1,1.3397001E0,5.572933E-1,8.6373866E-1,4.9644732E-1,5.398024E-1,5.5048645E-1,4.387027E-1,5.3040844E-1,3.6512017E-1,3.1619477E-1,4.878655E-1,4.9039528E-1,5.371237E-1,6.0407996E-1,5.5298066E-1,9.2782515E-1,8.273055E-1,6.2707597E-1,7.121461E-1,6.1743325E-1,5.5264145E-1,7.781727E-1,7.0865536E-1,1.5128593E0,6.566215E-1,8.0178744E-1,6.803709E-1,9.296995E-1,4.795456E-1,7.4828756E-1,5.255131E-1,6.275771E-1,5.454024E-1,6.380591E-1,5.179324E-1,6.7605144E-1,9.695566E-1,6.982493E-1,9.626436E-1],"split_indices":[4,33,28,12,34,33,37,20,28,17,27,28,27,34,4,13,29,40,29,27,30,30,5,35,12,16,35,28,3,20,8,7,8,32,29,7,16,20,1,38,28,28,25,41,38,39,26,4,16,20,26,28,29,27,41,38,27,29,39,10,29,22,0,0,0,0,0,0,0,0,0,0,0,0,0,0,0,0,0,0,0,0,0,0,0,0,0,0,0,0,0,0,0,0,0,0,0,0,0,0,0,0,0,0,0,0,0,0,0,0,0,0,0,0,0,0,0,0,0,0,0,0,0,0,0,0,0],"split_type":[0,0,0,0,0,0,0,0,0,0,0,0,0,0,0,0,0,0,0,0,0,0,0,0,0,0,0,0,0,0,0,0,0,0,0,0,0,0,0,0,0,0,0,0,0,0,0,0,0,0,0,0,0,0,0,0,0,0,0,0,0,0,0,0,0,0,0,0,0,0,0,0,0,0,0,0,0,0,0,0,0,0,0,0,0,0,0,0,0,0,0,0,0,0,0,0,0,0,0,0,0,0,0,0,0,0,0,0,0,0,0,0,0,0,0,0,0,0,0,0,0,0,0,0,0,0,0],"sum_hessian":[2.91499E5,1.63128E5,1.28371E5,9.1512E4,7.1616E4,9.6259E4,3.2112E4,2.1624E4,6.9888E4,2.268E3,6.9348E4,7.1059E4,2.52E4,1.116E4,2.0952E4,1.0884E4,1.074E4,1.464E3,6.8424E4,1.212E3,1.056E3,3.612E3,6.5736E4,2.88E3,6.8179E4,4.344E3,2.0856E4,9.084E3,2.076E3,1.6824E4,4.128E3,6.144E3,4.74E3,8.328E3,2.412E3,4.8E1,1.416E3,5.8452E4,9.972E3,7.92E2,4.2E2,3.84E2,6.72E2,9.6E1,3.516E3,4.8708E4,1.7028E4,1.428E3,1.452E3,2.3664E4,4.4515E4,1.008E3,3.336E3,1.9848E4,1.008E3,6.66E3,2.424E3,6.12E2,1.464E3,4.56E3,1.2264E4,3.996E3,1.32E2,3.468E3,2.676E3,4.02E3,7.2E2,4.452E3,3.876E3,2.4E3,1.2E1,2.4E1,2.4E1,1.284E3,1.32E2,2.274E4,3.5712E4,8.748E3,1.224E3,7.8E2,1.2E1,4.08E2,1.2E1,3.48E2,3.6E1,3.24E2,3.48E2,8E0,8.8E1,3.048E3,4.68E2,2.6688E4,2.202E4,3.048E3,1.398E4,1.092E3,3.36E2,1.32E3,1.32E2,8.616E3,1.5048E4,1.0956E4,3.3559E4,1.56E2,8.52E2,1.26E3,2.076E3,8.448E3,1.14E4,6.72E2,3.36E2,1.2E1,6.648E3,1.116E3,1.308E3,5.76E2,3.6E1,1.344E3,1.2E2,9.48E2,3.612E3,1.1352E4,9.12E2,3.96E3,3.6E1,4.8E1,8.4E1],"tree_param":{"num_deleted":"0","num_feature":"42","num_nodes":"127","size_leaf_vector":"0"}},{"base_weights":[1.2387922E0,1.1592737E0,1.3938358E0,1.0806924E0,1.2111396E0,1.29279E0,1.4865568E0,1.0058743E0,1.1418335E0,1.1895232E0,1.3264593E0,1.2311856E0,1.382667E0,1.4137843E0,1.6176525E0,7.1389973E-1,1.019472E0,1.2980533E0,1.108252E0,1.2033389E0,1.0435804E0,1.6723057E0,1.2598875E0,1.271121E0,1.1467755E0,1.2752087E0,1.4486325E0,1.4421163E0,1.0484933E0,1.396459E0,1.6602818E0,6.305518E-1,9.958103E-1,1.0051658E0,1.2179686E0,6.5637463E-1,1.312761E0,1.0520185E0,1.2108954E0,1.1659594E0,1.3082495E0,1.211249E0,9.859109E-1,1.5683466E0,1.8447473E0,1.2288482E0,1.810935E0,1.2486554E0,1.4272269E0,1.1182711E0,1.3916261E0,1.3720528E0,1.12752E0,1.4817723E0,1.1677271E0,1.4840287E0,1.2464781E0,9.8994446E-1,1.5964214E0,3.8828795E0,1.3850863E0,1.4217613E0,1.6929209E0,5.20631E-1,7.212091E-1,1.1229802E0,8.7156975E-1,9.6164966E-1,1.0533444E0,1.4138315E0,1.0852357E0,5.2179337E-2,7.022228E-1,1.2273258E0,1.3992517E0,9.9134E-1,1.1087708E0,1.2503096E0,8.830587E-1,1.1540774E0,1.4333806E0,1.2581849E0,1.3900532E0,1.1998522E0,3.0020528E0,9.978731E-1,4.2364717E-1,1.610475E0,1.2632884E0,1.6269529E0,1.9195304E0,1.2516558E0,1.0243592E0,1.8215115E0,1.4030123E0,1.1454374E0,1.2770264E0,1.3018744E0,1.5429133E0,1.1229093E0,-4.2274117E-1,3.2874033E0,1.3381913E0,1.2521967E0,1.4837409E0,9.182938E-1,1.205508E0,1.4690305E0,1.975325E0,1.062752E0,1.6678712E0,1.4593159E0,1.805953E0,9.4878787E-1,1.4130523E0,1.2452184E0,9.3822664E-1,2.3832963E0,1.2203814E0,3.6463785E0,1.3746624E0,1.0979539E0,1.5119301E0,1.7208102E0,1.3258128E0],"categories":[],"categories_nodes":[],"categories_segments":[],"categories_sizes":[],"default_left":[true,true,true,true,true,true,true,true,true,true,true,true,true,true,true,true,true,true,true,true,true,true,true,true,true,true,true,true,true,true,true,true,true,true,true,true,true,true,true,true,true,true,true,true,true,true,true,true,true,true,true,true,true,true,true,true,true,true,true,false,true,true,true,false,false,false,false,false,false,false,false,false,false,false,false,false,false,false,false,false,false,false,false,false,false,false,false,false,false,false,false,false,false,false,false,false,false,false,false,false,false,false,false,false,false,false,false,false,false,false,false,false,false,false,false,false,false,false,false,false,false,false,false,false,false],"id":4,"left_children":[1,3,5,7,9,11,13,15,17,19,21,23,25,27,29,31,33,35,37,39,41,43,45,47,49,51,53,55,57,59,61,63,65,67,69,71,73,75,77,79,81,83,85,87,89,91,93,95,97,99,101,103,105,107,109,111,113,115,117,-1,119,121,123,-1,-1,-1,-1,-1,-1,-1,-1,-1,-1,-1,-1,-1,-1,-1,-1,-1,-1,-1,-1,-1,-1,-1,-1,-1,-1,-1,-1,-1,-1,-1,-1,-1,-1,-1,-1,-1,-1,-1,-1,-1,-1,-1,-1,-1,-1,-1,-1,-1,-1,-1,-1,-1,-1,-1,-1,-1,-1,-1,-1,-1,-1],"loss_changes":[3.59225E3,7.840156E2,9.238906E2,3.4935156E2,2.8776562E2,2.6014844E2,4.892578E2,1.3610547E2,2.1971875E2,1.9582812E2,4.195254E2,9.316406E1,1.3442969E2,3.4146875E2,1.7104297E2,3.548645E1,9.228516E1,6.947656E1,1.9904688E2,3.4864062E2,8.061914E1,5.004492E1,2.6050977E2,6.5009766E1,6.1432617E1,1.0316406E2,1.0909375E2,2.503086E2,7.506006E1,7.8802734E1,1.1755469E2,1.1473053E1,4.5353394E0,6.3396484E1,5.5894043E1,4.644867E0,5.2114258E1,7.613867E1,1.5753125E2,2.075625E2,9.428906E1,4.0502686E1,4.195752E1,2.1728027E1,1.4874268E1,6.655664E1,9.692383E-1,4.7316406E1,3.2635742E1,5.8291016E1,9.051953E1,5.726953E1,4.6294434E1,6.404297E1,6.443347E1,1.988086E2,2.6801855E2,2.7361572E1,6.4851746E1,0E0,6.487744E1,5.267627E1,1.364375E2,0E0,0E0,0E0,0E0,0E0,0E0,0E0,0E0,0E0,0E0,0E0,0E0,0E0,0E0,0E0,0E0,0E0,0E0,0E0,0E0,0E0,0E0,0E0,0E0,0E0,0E0,0E0,0E0,0E0,0E0,0E0,0E0,0E0,0E0,0E0,0E0,0E0,0E0,0E0,0E0,0E0,0E0,0E0,0E0,0E0,0E0,0E0,0E0,0E0,0E0,0E0,0E0,0E0,0E0,0E0,0E0,0E0,0E0,0E0,0E0,0E0,0E0],"parents":[2147483647,0,0,1,1,2,2,3,3,4,4,5,5,6,6,7,7,8,8,9,9,10,10,11,11,12,12,13,13,14,14,15,15,16,16,17,17,18,18,19,19,20,20,21,21,22,22,23,23,24,24,25,25,26,26,27,27,28,28,29,29,30,30,31,31,32,32,33,33,34,34,35,35,36,36,37,37,38,38,39,39,40,40,41,41,42,42,43,43,44,44,45,45,46,46,47,47,48,48,49,49,50,50,51,51,52,52,53,53,54,54,55,55,56,56,57,57,58,58,60,60,61,61,62,62],"right_children":[2,4,6,8,10,12,14,16,18,20,22,24,26,28,30,32,34,36,38,40,42,44,46,48,50,52,54,56,58,60,62,64,66,68,70,72,74,76,78,80,82,84,86,88,90,92,94,96,98,100,102,104,106,108,110,112,114,116,118,-1,120,122,124,-1,-1,-1,-1,-1,-1,-1,-1,-1,-1,-1,-1,-1,-1,-1,-1,-1,-1,-1,-1,-1,-1,-1,-1,-1,-1,-1,-1,-1,-1,-1,-1,-1,-1,-1,-1,-1,-1,-1,-1,-1,-1,-1,-1,-1,-1,-1,-1,-1,-1,-1,-1,-1,-1,-1,-1,-1,-1,-1,-1,-1,-1],"split_conditions":[5.5E0,3.5E0,3.5E0,2.5E0,1.67E2,2.5E0,2.5E0,1.5E0,2.5E0,1.45E1,2E2,2.5E0,5E-1,1.05E1,5E-1,9.95E1,1.815E2,1.5E0,7.5E0,3.5E0,4.9E1,1.5E0,3E0,2.5E0,1.51E2,2.5E0,2.45E1,2.35E2,6.65E1,5E-1,5E-1,1.5E0,1.5E0,2.5E0,5.65E1,4.5E0,2.5E0,5E-1,1.2E1,9.5E0,1.05E1,1.835E2,4.5E0,3.5E0,5E-1,4.5E0,1.5E0,3.75E1,9.75E1,3E0,3.5E-2,1.5E0,1.5E0,4.5E0,5.5E0,3.5E0,8.35E1,1.05E2,2.5E0,1.164864E0,6.5E0,2.5E0,2.445E2,1.5618931E-1,2.1636274E-1,3.368941E-1,2.6147094E-1,2.884949E-1,3.1600332E-1,4.2414945E-1,3.2557073E-1,1.5653802E-2,2.1066685E-1,3.6819774E-1,4.1977552E-1,2.97402E-1,3.3263126E-1,3.750929E-1,2.6491764E-1,3.4622324E-1,4.300142E-1,3.774555E-1,4.1701597E-1,3.5995567E-1,9.006159E-1,2.9936194E-1,1.2709415E-1,4.831425E-1,3.7898654E-1,4.880859E-1,5.758591E-1,3.7549677E-1,3.0730778E-1,5.464535E-1,4.209037E-1,3.436312E-1,3.8310793E-1,3.9056233E-1,4.6287403E-1,3.3687282E-1,-1.2682235E-1,9.86221E-1,4.014574E-1,3.7565902E-1,4.451223E-1,2.7548814E-1,3.616524E-1,4.4070917E-1,5.9259754E-1,3.188256E-1,5.003614E-1,4.3779477E-1,5.4178596E-1,2.8463638E-1,4.239157E-1,3.7356552E-1,2.81468E-1,7.149889E-1,3.6611444E-1,1.0939136E0,4.1239873E-1,3.2938617E-1,4.5357904E-1,5.162431E-1,3.9774385E-1],"split_indices":[28,28,7,9,34,5,4,28,13,29,27,13,20,29,20,26,27,28,33,29,26,5,35,7,33,13,29,27,29,40,19,7,27,29,38,40,7,19,29,35,34,29,35,6,20,5,1,38,26,1,37,12,12,8,34,35,33,30,0,0,38,5,27,0,0,0,0,0,0,0,0,0,0,0,0,0,0,0,0,0,0,0,0,0,0,0,0,0,0,0,0,0,0,0,0,0,0,0,0,0,0,0,0,0,0,0,0,0,0,0,0,0,0,0,0,0,0,0,0,0,0,0,0,0,0],"split_type":[0,0,0,0,0,0,0,0,0,0,0,0,0,0,0,0,0,0,0,0,0,0,0,0,0,0,0,0,0,0,0,0,0,0,0,0,0,0,0,0,0,0,0,0,0,0,0,0,0,0,0,0,0,0,0,0,0,0,0,0,0,0,0,0,0,0,0,0,0,0,0,0,0,0,0,0,0,0,0,0,0,0,0,0,0,0,0,0,0,0,0,0,0,0,0,0,0,0,0,0,0,0,0,0,0,0,0,0,0,0,0,0,0,0,0,0,0,0,0,0,0,0,0,0,0],"sum_hessian":[2.91499E5,1.92684E5,9.8815E4,7.662E4,1.16064E5,4.7292E4,5.1523E4,3.4464E4,4.2156E4,9.7752E4,1.8312E4,2.8068E4,1.9224E4,3.3139E4,1.8384E4,1.536E3,3.2928E4,7.452E3,3.4704E4,8.9292E4,8.46E3,2.952E3,1.536E4,1.9044E4,9.024E3,7.32E3,1.1904E4,3.0751E4,2.388E3,2.976E3,1.5408E4,1.188E3,3.48E2,3.072E4,2.208E3,1.68E2,7.284E3,2.2428E4,1.2276E4,6.5844E4,2.3448E4,2.16E3,6.3E3,1.848E3,1.104E3,1.4544E4,8.16E2,1.6656E4,2.388E3,8.088E3,9.36E2,4.416E3,2.904E3,1.0644E4,1.26E3,2.532E4,5.431E3,2.16E3,2.28E2,1.2E1,2.964E3,1.86E3,1.3548E4,5.4E2,6.48E2,1.68E2,1.8E2,1.6152E4,1.4568E4,8.88E2,1.32E3,1.2E1,1.56E2,3.672E3,3.612E3,1.0848E4,1.158E4,1.0956E4,1.32E3,6.3048E4,2.796E3,1.4556E4,8.892E3,2.148E3,1.2E1,6.168E3,1.32E2,1.62E3,2.28E2,2.88E2,8.16E2,1.308E4,1.464E3,7.92E2,2.4E1,3.6E3,1.3056E4,1.152E3,1.236E3,8.064E3,2.4E1,2.4E1,9.12E2,2.136E3,2.28E3,7.92E2,2.112E3,1.038E4,2.64E2,1.044E3,2.16E2,2.352E4,1.8E3,1.951E3,3.48E3,3.6E2,1.8E3,7.2E1,1.56E2,1.2E1,2.952E3,4.08E2,1.452E3,1.2588E4,9.6E2],"tree_param":{"num_deleted":"0","num_feature":"42","num_nodes":"125","size_leaf_vector":"0"}},{"base_weights":[8.672427E-1,7.950353E-1,9.589937E-1,7.450518E-1,8.338985E-1,8.465414E-1,1.0006483E0,7.723332E-1,6.5378004E-1,8.542169E-1,6.79769E-1,8.6271024E-1,5.134224E-1,9.556184E-1,1.114909E0,8.0254364E-1,6.919413E-1,5.971206E-1,7.659827E-1,7.471675E-1,8.843636E-1,7.197819E-1,5.567625E-1,8.3798856E-1,1.0309025E0,4.810782E-1,1.1873907E0,9.085121E-1,1.0582515E0,1.227947E0,1.0362042E0,7.820474E-1,9.2980266E-1,6.86961E-1,1.5585198E0,6.337649E-1,4.6428218E-1,6.3463044E-1,8.211109E-1,6.566287E-1,8.4046954E-1,6.537789E-1,8.9670444E-1,7.593355E-1,5.479944E-1,4.8289508E-1,7.2717583E-1,7.5684166E-1,8.928881E-1,1.0013943E0,1.6440108E0,5.168216E-1,5.8520265E-2,7.747917E-1,1.567898E0,8.416029E-1,9.4410324E-1,1.0903922E0,8.1529367E-1,1.4959726E0,1.1083082E0,1.0785723E0,5.72406E-1,7.55902E-1,9.215173E-1,1.1963133E0,9.1168463E-1,5.8391637E-1,7.1936685E-1,7.663674E-1,2.5654645E0,4.5841885E-1,6.5648806E-1,3.433314E-1,5.788675E-1,7.2931784E-1,4.6007383E-1,1.2352262E0,8.0202043E-1,7.5591654E-1,5.731872E-1,5.479275E-1,8.675094E-1,7.6139814E-1,2.1670032E-1,9.1625893E-1,7.665696E-1,6.4905524E-1,7.9649603E-1,7.0557827E-1,4.128855E-1,4.1155645E-1,6.2892336E-1,4.6880907E-1,7.958747E-1,7.2334945E-1,9.2488146E-1,1.0039485E0,8.638062E-1,5.4046303E-1,1.0242229E0,2.411022E0,1.1676817E0,2.1391364E-3,5.492531E-1,1.5057471E-1,-3.0099183E-1,1.9073933E0,1.3286445E0,7.6837516E-1,9.5023364E-1,8.58088E-1,1.0052134E0,1.0207705E0,1.2146168E0,1.6937599E0,7.744615E-1,2.8552935E0,1.4549797E0,9.357346E-1,1.1921387E0,1.4040024E0,1.0351564E0,1.4016362E-1,9.659521E-1],"categories":[],"categories_nodes":[],"categories_segments":[],"categories_sizes":[],"default_left":[true,true,true,true,true,true,true,true,true,true,true,true,true,true,true,true,true,true,true,true,true,true,true,true,true,true,true,true,true,true,true,true,true,true,true,true,true,true,true,true,true,true,true,true,true,true,true,true,true,true,true,true,true,false,true,true,true,true,true,true,true,true,true,false,false,false,false,false,false,false,false,false,false,false,false,false,false,false,false,false,false,false,false,false,false,false,false,false,false,false,false,false,false,false,false,false,false,false,false,false,false,false,false,false,false,false,false,false,false,false,false,false,false,false,false,false,false,false,false,false,false,false,false,false,false],"id":5,"left_children":[1,3,5,7,9,11,13,15,17,19,21,23,25,27,29,31,33,35,37,39,41,43,45,47,49,51,53,55,57,59,61,63,65,67,69,71,73,75,77,79,81,83,85,87,89,91,93,95,97,99,101,103,105,-1,107,109,111,113,115,117,119,121,123,-1,-1,-1,-1,-1,-1,-1,-1,-1,-1,-1,-1,-1,-1,-1,-1,-1,-1,-1,-1,-1,-1,-1,-1,-1,-1,-1,-1,-1,-1,-1,-1,-1,-1,-1,-1,-1,-1,-1,-1,-1,-1,-1,-1,-1,-1,-1,-1,-1,-1,-1,-1,-1,-1,-1,-1,-1,-1,-1,-1,-1,-1],"loss_changes":[1.9304531E3,3.162578E2,6.0046875E2,1.7719531E2,2.8679688E2,1.8648242E2,4.808672E2,1.3286719E2,1.03987305E2,2.6097656E2,5.2228516E1,1.367539E2,3.4503357E1,3.2391016E2,2.3425E2,1.0341016E2,6.3723145E1,5.28667E1,3.9370605E1,1.4999023E2,1.7940625E2,5.4384277E1,3.2742676E1,1.2789844E2,7.50083E1,2.3184082E1,1.0245987E1,1.0889844E2,1.6413477E2,3.4661426E2,3.061836E2,1.2471875E2,2.5625977E1,4.943164E1,6.583449E1,3.37937E1,3.2578217E1,2.6655212E1,2.9659668E1,7.45354E1,6.8921875E1,1.5115637E2,1.5207422E2,2.6337646E1,3.1921936E1,1.8878021E1,1.370224E1,6.491504E1,5.4714844E1,4.200952E1,6.769714E1,2.3651306E1,4.0497794E0,0E0,4.7109222E-1,1.26578125E2,1.5714844E2,1.601543E2,8.739404E1,1.8246045E2,1.0757422E2,2.0066016E2,2.2253503E2,0E0,0E0,0E0,0E0,0E0,0E0,0E0,0E0,0E0,0E0,0E0,0E0,0E0,0E0,0E0,0E0,0E0,0E0,0E0,0E0,0E0,0E0,0E0,0E0,0E0,0E0,0E0,0E0,0E0,0E0,0E0,0E0,0E0,0E0,0E0,0E0,0E0,0E0,0E0,0E0,0E0,0E0,0E0,0E0,0E0,0E0,0E0,0E0,0E0,0E0,0E0,0E0,0E0,0E0,0E0,0E0,0E0,0E0,0E0,0E0,0E0,0E0],"parents":[2147483647,0,0,1,1,2,2,3,3,4,4,5,5,6,6,7,7,8,8,9,9,10,10,11,11,12,12,13,13,14,14,15,15,16,16,17,17,18,18,19,19,20,20,21,21,22,22,23,23,24,24,25,25,26,26,27,27,28,28,29,29,30,30,31,31,32,32,33,33,34,34,35,35,36,36,37,37,38,38,39,39,40,40,41,41,42,42,43,43,44,44,45,45,46,46,47,47,48,48,49,49,50,50,51,51,52,52,54,54,55,55,56,56,57,57,58,58,59,59,60,60,61,61,62,62],"right_children":[2,4,6,8,10,12,14,16,18,20,22,24,26,28,30,32,34,36,38,40,42,44,46,48,50,52,54,56,58,60,62,64,66,68,70,72,74,76,78,80,82,84,86,88,90,92,94,96,98,100,102,104,106,-1,108,110,112,114,116,118,120,122,124,-1,-1,-1,-1,-1,-1,-1,-1,-1,-1,-1,-1,-1,-1,-1,-1,-1,-1,-1,-1,-1,-1,-1,-1,-1,-1,-1,-1,-1,-1,-1,-1,-1,-1,-1,-1,-1,-1,-1,-1,-1,-1,-1,-1,-1,-1,-1,-1,-1,-1,-1,-1,-1,-1,-1,-1,-1,-1,-1,-1,-1,-1],"split_conditions":[1.5E0,2.5E0,5E-1,2.5E0,2.7E1,2.5E0,4.5E0,3.5E0,1.05E1,1.5E0,3.5E0,3.5E0,7.5E0,2.5E0,3.6E1,1.5E0,3.3E1,5E-1,9.35E1,5E-1,2.05E1,1.5E0,1.75E1,4.5E0,8.25E1,3E0,2.5E0,2.5E0,1.45E1,2.5E0,2.94E2,1.815E2,1.6499999E-1,5E-1,1.5E0,5E-1,3.95E1,7.25E1,8.9E1,3.5E0,5E-1,6.85E1,2.78E2,5E-1,5E-1,4.75E1,3.5E0,4.95E1,5E-1,4.5E0,5E-1,5E-1,3.5E0,2.3243752E-1,1.5E0,2E0,1.45E1,4.5E0,3.9E1,6E0,1.5E0,1.5E0,1.5E0,2.2677061E-1,2.764552E-1,3.58894E-1,2.735054E-1,1.7517492E-1,2.1581006E-1,2.2991022E-1,7.696394E-1,1.3752566E-1,1.9694643E-1,1.0299943E-1,1.7366025E-1,2.1879536E-1,1.3802215E-1,3.7056786E-1,2.4060614E-1,2.2677498E-1,1.7195615E-1,1.6437826E-1,2.6025283E-1,2.2841945E-1,6.50101E-2,2.748777E-1,2.2997089E-1,1.9471659E-1,2.3894882E-1,2.1167348E-1,1.2386565E-1,1.2346694E-1,1.8867701E-1,1.4064273E-1,2.3876242E-1,2.1700485E-1,2.7746445E-1,3.0118454E-1,2.5914186E-1,1.6213891E-1,3.0726686E-1,7.233066E-1,3.503045E-1,6.41741E-4,1.6477594E-1,4.5172416E-2,-9.029755E-2,5.72218E-1,3.9859337E-1,2.3051256E-1,2.850701E-1,2.574264E-1,3.0156404E-1,3.0623117E-1,3.6438504E-1,5.08128E-1,2.3233846E-1,8.5658807E-1,4.364939E-1,2.807204E-1,3.576416E-1,4.2120075E-1,3.1054693E-1,4.2049088E-2,2.8978565E-1],"split_indices":[4,7,20,13,29,35,8,5,27,33,5,5,28,5,26,5,29,35,26,20,38,1,31,34,38,1,7,29,29,0,27,27,37,3,12,17,38,26,25,13,17,27,27,18,32,38,40,38,18,28,32,17,6,0,1,39,33,29,30,30,29,40,29,0,0,0,0,0,0,0,0,0,0,0,0,0,0,0,0,0,0,0,0,0,0,0,0,0,0,0,0,0,0,0,0,0,0,0,0,0,0,0,0,0,0,0,0,0,0,0,0,0,0,0,0,0,0,0,0,0,0,0,0,0,0],"split_type":[0,0,0,0,0,0,0,0,0,0,0,0,0,0,0,0,0,0,0,0,0,0,0,0,0,0,0,0,0,0,0,0,0,0,0,0,0,0,0,0,0,0,0,0,0,0,0,0,0,0,0,0,0,0,0,0,0,0,0,0,0,0,0,0,0,0,0,0,0,0,0,0,0,0,0,0,0,0,0,0,0,0,0,0,0,0,0,0,0,0,0,0,0,0,0,0,0,0,0,0,0,0,0,0,0,0,0,0,0,0,0,0,0,0,0,0,0,0,0,0,0,0,0,0,0],"sum_hessian":[2.91499E5,1.63128E5,1.28371E5,7.1364E4,9.1764E4,3.4704E4,9.3667E4,5.4936E4,1.6428E4,8.1072E4,1.0692E4,3.3096E4,1.608E3,6.7195E4,2.6472E4,3.9924E4,1.5012E4,1.092E4,5.508E3,1.782E4,6.3252E4,8.064E3,2.628E3,2.886E4,4.236E3,1.536E3,7.2E1,4.6063E4,2.1132E4,1.086E4,1.5612E4,3.4392E4,5.532E3,1.4928E4,8.4E1,8.556E3,2.364E3,1.632E3,3.876E3,9.048E3,8.772E3,3.216E3,6.0036E4,6.552E3,1.512E3,1.836E3,7.92E2,1.1652E4,1.7208E4,4.044E3,1.92E2,1.416E3,1.2E2,3.6E1,3.6E1,1.6003E4,3.006E4,1.866E4,2.472E3,3.348E3,7.512E3,1.4304E4,1.308E3,2.8968E4,5.424E3,3.48E2,5.184E3,3.576E3,1.1352E4,4.8E1,3.6E1,9.84E2,7.572E3,1.152E3,1.212E3,1.056E3,5.76E2,1.68E2,3.708E3,4.128E3,4.92E3,7.44E2,8.028E3,2.58E3,6.36E2,5.2188E4,7.848E3,1.656E3,4.896E3,6.96E2,8.16E2,1.236E3,6E2,1.68E2,6.24E2,9.72E3,1.932E3,3.564E3,1.3644E4,1.92E2,3.852E3,7.2E1,1.2E2,8.4E1,1.332E3,9.6E1,2.4E1,1.2E1,2.4E1,9.564E3,6.439E3,1.2492E4,1.7568E4,1.1964E4,6.696E3,1.08E2,2.364E3,9.6E1,3.252E3,2.46E3,5.052E3,1.68E3,1.2624E4,6.24E2,6.84E2],"tree_param":{"num_deleted":"0","num_feature":"42","num_nodes":"125","size_leaf_vector":"0"}},{"base_weights":[6.0712683E-1,5.5656886E-1,6.7136884E-1,4.8653832E-1,5.757309E-1,6.399303E-1,7.555219E-1,5.294828E-1,4.305236E-1,5.6841964E-1,7.54066E-1,5.640975E-1,6.7034405E-1,7.3454577E-1,9.627893E-1,5.115024E-1,6.95758E-1,3.4878743E-1,4.7544837E-1,4.6957716E-1,5.8220124E-1,9.512994E-1,6.156485E-1,3.890527E-1,5.895229E-1,5.936114E-1,7.0511967E-1,7.002243E-1,8.6770654E-1,1.0206516E0,7.279213E-1,1.09121546E-1,5.1613355E-1,1.1205293E0,6.578374E-1,2.8764004E-1,4.672641E-1,3.0339614E-1,4.966814E-1,4.3437E-1,6.894594E-1,5.975109E-1,4.9335474E-1,1.1543746E0,7.087039E-1,9.387085E-1,5.7064265E-1,3.3489954E-1,6.1783236E-1,4.9566537E-1,6.1562407E-1,6.077303E-1,3.2919788E-1,7.2218883E-1,5.158391E-1,6.395388E-1,7.568889E-1,1.2175741E0,8.326617E-1,2.2092953E0,1.0085742E0,-1.1877058E0,7.666017E-1,2.5761214E-1,-3.6888137E-1,5.1495934E-1,2.0741525E0,1.5110285E0,9.3470377E-1,8.3242273E-1,5.509109E-1,3.5949296E-1,2.0006776E-1,4.971633E-1,1.441569E-1,2.793821E-1,9.734302E-1,5.2574646E-1,4.1648614E-1,4.2358178E-1,9.506073E-1,1.0332304E0,5.8548737E-1,6.0086036E-1,1.7216472E-1,3.9309478E-1,6.2988013E-1,8.621482E-1,1.3691765E0,7.535979E-1,4.2810686E-2,1.1038333E0,7.1712047E-1,5.4358244E-1,1.1216673E0,2.514177E-1,4.0293133E-1,6.3976693E-1,-5.044881E-1,3.2544824E-1,5.4472136E-1,3.02973E-1,6.2578076E-1,6.400642E-1,5.341622E-1,1.8230599E-1,4.2576352E-1,6.0849017E-1,7.4464667E-1,2.336584E-1,5.9817827E-1,6.465438E-1,-6.398491E-2,4.2071123E0,7.533861E-1,7.8454083E-1,1.2545446E0,8.859255E-1,6.595015E-1,8.172286E-1,1.092672E0,1.854658E0,7.422765E-1],"categories":[],"categories_nodes":[],"categories_segments":[],"categories_sizes":[],"default_left":[true,true,true,true,true,true,true,true,true,true,true,true,true,true,true,true,true,true,true,true,true,true,true,true,true,true,true,true,true,true,true,true,true,true,true,true,true,true,true,true,true,true,true,true,true,true,true,true,true,true,true,true,true,true,true,true,true,true,true,false,true,false,true,false,false,false,false,false,false,false,false,false,false,false,false,false,false,false,false,false,false,false,false,false,false,false,false,false,false,false,false,false,false,false,false,false,false,false,false,false,false,false,false,false,false,false,false,false,false,false,false,false,false,false,false,false,false,false,false,false,false,false,false],"id":6,"left_children":[1,3,5,7,9,11,13,15,17,19,21,23,25,27,29,31,33,35,37,39,41,43,45,47,49,51,53,55,57,59,61,63,65,67,69,71,73,75,77,79,81,83,85,87,89,91,93,95,97,99,101,103,105,107,109,111,113,115,117,-1,119,-1,121,-1,-1,-1,-1,-1,-1,-1,-1,-1,-1,-1,-1,-1,-1,-1,-1,-1,-1,-1,-1,-1,-1,-1,-1,-1,-1,-1,-1,-1,-1,-1,-1,-1,-1,-1,-1,-1,-1,-1,-1,-1,-1,-1,-1,-1,-1,-1,-1,-1,-1,-1,-1,-1,-1,-1,-1,-1,-1,-1,-1],"loss_changes":[9.4639844E2,2.186289E2,3.3914453E2,8.409277E1,1.665664E2,2.151836E2,1.510664E2,5.895117E1,5.5710693E1,1.6733203E2,1.3703638E2,1.1887305E2,1.7757617E2,1.4429297E2,4.281299E1,3.3309082E1,3.0398865E1,3.8993347E1,3.5712646E1,1.1629419E2,1.4657422E2,1.0150549E2,4.257422E1,4.1878967E1,5.6934082E1,7.748486E1,1.4791211E2,8.62168E1,7.859717E1,3.4651367E1,4.8110382E1,1.464571E1,3.1314453E1,9.980301E0,3.271405E1,2.2360199E1,1.7674957E1,1.712156E1,2.0145996E1,7.191455E1,7.3632324E1,1.3111328E2,2.170774E2,6.968787E1,2.8337738E1,1.2417297E1,3.823297E1,1.5511444E1,1.6299591E1,4.2316772E1,5.784912E1,4.664502E1,1.4915619E1,1.0703906E2,8.815137E1,6.007129E1,1.5433936E2,8.445374E0,5.3878906E1,0E0,4.0060547E1,0E0,1.5165283E1,0E0,0E0,0E0,0E0,0E0,0E0,0E0,0E0,0E0,0E0,0E0,0E0,0E0,0E0,0E0,0E0,0E0,0E0,0E0,0E0,0E0,0E0,0E0,0E0,0E0,0E0,0E0,0E0,0E0,0E0,0E0,0E0,0E0,0E0,0E0,0E0,0E0,0E0,0E0,0E0,0E0,0E0,0E0,0E0,0E0,0E0,0E0,0E0,0E0,0E0,0E0,0E0,0E0,0E0,0E0,0E0,0E0,0E0,0E0,0E0],"parents":[2147483647,0,0,1,1,2,2,3,3,4,4,5,5,6,6,7,7,8,8,9,9,10,10,11,11,12,12,13,13,14,14,15,15,16,16,17,17,18,18,19,19,20,20,21,21,22,22,23,23,24,24,25,25,26,26,27,27,28,28,29,29,30,30,31,31,32,32,33,33,34,34,35,35,36,36,37,37,38,38,39,39,40,40,41,41,42,42,43,43,44,44,45,45,46,46,47,47,48,48,49,49,50,50,51,51,52,52,53,53,54,54,55,55,56,56,57,57,58,58,60,60,62,62],"right_children":[2,4,6,8,10,12,14,16,18,20,22,24,26,28,30,32,34,36,38,40,42,44,46,48,50,52,54,56,58,60,62,64,66,68,70,72,74,76,78,80,82,84,86,88,90,92,94,96,98,100,102,104,106,108,110,112,114,116,118,-1,120,-1,122,-1,-1,-1,-1,-1,-1,-1,-1,-1,-1,-1,-1,-1,-1,-1,-1,-1,-1,-1,-1,-1,-1,-1,-1,-1,-1,-1,-1,-1,-1,-1,-1,-1,-1,-1,-1,-1,-1,-1,-1,-1,-1,-1,-1,-1,-1,-1,-1,-1,-1,-1,-1,-1,-1,-1,-1,-1,-1,-1,-1],"split_conditions":[1.5E0,1.5E0,6.5E0,1.5E0,9.5E0,5E-1,1.35E1,1.5E0,2.5E0,5E-1,5E-1,1.5E0,2.5E0,1.295E2,4.215E2,1.5E0,2.2E1,5E-1,2.35E1,2.5E0,5E-1,9.9E1,1.65E1,7.5E0,1.5E0,1.55E1,2.78E2,5E-1,6.75E1,5E-1,5E-1,4.75E1,6E2,4.5E0,1.05E1,5E-1,5E0,7.46E2,2.5E0,5E-1,7E1,1.115E2,5E-1,2.65E1,6E0,1.5E0,3.5E0,1.5E0,4.5E0,3.55E1,8E0,1.05E1,4.5E0,1.5E0,1.5E0,1.1E2,1.5E0,2.5E0,9.85E1,6.627886E-1,3.5E0,-3.5631174E-1,4.415E2,7.728364E-2,-1.1066442E-1,1.544878E-1,6.222458E-1,4.5330858E-1,2.8041115E-1,2.4972683E-1,1.6527328E-1,1.0784789E-1,6.002033E-2,1.49149E-1,4.3247074E-2,8.3814636E-2,2.9202908E-1,1.5772395E-1,1.2494585E-1,1.2707454E-1,2.851822E-1,3.0996913E-1,1.7564622E-1,1.8025811E-1,5.1649418E-2,1.1792844E-1,1.8896405E-1,2.586445E-1,4.1075298E-1,2.2607939E-1,1.28432065E-2,3.3115E-1,2.1513616E-1,1.6307473E-1,3.365002E-1,7.542531E-2,1.20879404E-1,1.9193009E-1,-1.5134645E-1,9.763448E-2,1.6341642E-1,9.0891905E-2,1.8773423E-1,1.9201927E-1,1.6024867E-1,5.46918E-2,1.2772906E-1,1.8254706E-1,2.23394E-1,7.009752E-2,1.7945349E-1,1.9396316E-1,-1.9195473E-2,1.2621337E0,2.2601584E-1,2.3536226E-1,3.763634E-1,2.6577765E-1,1.9785045E-1,2.451686E-1,3.2780161E-1,5.5639744E-1,2.2268295E-1],"split_indices":[4,9,28,13,35,20,28,7,28,17,34,5,9,33,39,28,30,16,38,35,35,25,33,40,12,29,27,16,27,2,2,38,29,40,33,35,6,39,5,21,25,38,16,33,29,0,6,34,6,38,30,32,40,5,29,33,5,12,26,0,40,0,39,0,0,0,0,0,0,0,0,0,0,0,0,0,0,0,0,0,0,0,0,0,0,0,0,0,0,0,0,0,0,0,0,0,0,0,0,0,0,0,0,0,0,0,0,0,0,0,0,0,0,0,0,0,0,0,0,0,0,0,0],"split_type":[0,0,0,0,0,0,0,0,0,0,0,0,0,0,0,0,0,0,0,0,0,0,0,0,0,0,0,0,0,0,0,0,0,0,0,0,0,0,0,0,0,0,0,0,0,0,0,0,0,0,0,0,0,0,0,0,0,0,0,0,0,0,0,0,0,0,0,0,0,0,0,0,0,0,0,0,0,0,0,0,0,0,0,0,0,0,0,0,0,0,0,0,0,0,0,0,0,0,0,0,0,0,0,0,0,0,0,0,0,0,0,0,0,0,0,0,0,0,0,0,0,0,0],"sum_hessian":[2.91499E5,1.63128E5,1.28371E5,3.5052E4,1.28076E5,9.3463E4,3.4908E4,1.9836E4,1.5216E4,1.23036E5,5.04E3,2.676E4,6.6703E4,3.1704E4,3.204E3,1.7904E4,1.932E3,5.4E3,9.816E3,1.506E4,1.07976E5,2.076E3,2.964E3,3.396E3,2.3364E4,2.0808E4,4.5895E4,2.5212E4,6.492E3,2.568E3,6.36E2,2.04E2,1.77E4,1.56E2,1.776E3,3.564E3,1.836E3,1.08E3,8.736E3,1.2984E4,2.076E3,9.21E4,1.5876E4,1.128E3,9.48E2,3.6E2,2.604E3,2.748E3,6.48E2,5.088E3,1.8276E4,1.9752E4,1.056E3,4.2096E4,3.799E3,1.218E4,1.3032E4,5.88E2,5.904E3,2.4E1,2.544E3,1.2E1,6.24E2,1.56E2,4.8E1,1.7688E4,1.2E1,4.8E1,1.08E2,6.72E2,1.104E3,1.956E3,1.608E3,1.68E3,1.56E2,1.044E3,3.6E1,6.408E3,2.328E3,1.272E4,2.64E2,4.8E2,1.596E3,9.138E4,7.2E2,9.156E3,6.72E3,4.8E2,6.48E2,8.88E2,6E1,2.04E2,1.56E2,2.484E3,1.2E2,1.236E3,1.512E3,6.36E2,1.2E1,1.14E3,3.948E3,5.76E2,1.77E4,1.3716E4,6.036E3,4.2E2,6.36E2,6.948E3,3.5148E4,8.59E2,2.94E3,1.206E4,1.2E2,1.2E1,1.302E4,4.8E1,5.4E2,4.512E3,1.392E3,7.8E2,1.764E3,1.2E1,6.12E2],"tree_param":{"num_deleted":"0","num_feature":"42","num_nodes":"123","size_leaf_vector":"0"}},{"base_weights":[4.250322E-1,4.6616876E-1,3.8438568E-1,4.8585755E-1,3.178556E-1,4.0144765E-1,2.9211047E-1,4.5255104E-1,5.6212896E-1,2.9410157E-1,6.297162E-1,4.192057E-1,3.1625524E-1,2.4858928E-1,3.6594152E-1,5.143557E-1,3.9212972E-1,4.5641536E-1,6.6080946E-1,7.475046E-1,2.8274518E-1,4.3567115E-1,8.5630846E-1,4.5862612E-1,3.856205E-1,2.9597172E-1,4.3149847E-1,2.796366E-1,1.1545599E-1,3.0556488E-1,4.5681754E-1,4.8764768E-1,8.384387E-1,2.5589612E-1,4.678679E-1,5.1983637E-1,3.4233314E-1,5.382821E-1,7.2346556E-1,6.658748E-1,3.0321527E0,2.639863E-1,4.446792E-1,6.026596E-1,1.9142132E-1,9.1303957E-1,6.1684394E-1,4.266848E-1,5.671838E-1,3.2103336E-1,4.3422726E-1,3.0748007E-1,8.124817E-2,5.733477E-1,3.1985527E-1,2.0595607E-1,3.3966687E-1,1.8509127E-1,1.1311549E-2,1.8396902E-1,3.4490246E-1,3.95151E-1,7.8900015E-1,4.5465234E-1,7.832573E-1,6.160981E-1,9.642509E-1,1.0181224E-1,4.3952337E-1,5.3845763E-1,3.1852967E-1,4.809546E-1,7.46378E-1,-5.472717E-2,3.762601E-1,4.553274E-1,6.395977E-1,7.4504054E-1,3.5264304E-1,4.8375848E-1,1.4076711E0,2.50884E-1,4.435992E-1,6.8824667E-1,3.3939666E-1,4.9311426E-1,1.0640981E0,-1.3854131E-1,4.654493E-1,1.2462462E0,8.578742E-1,4.9509144E-1,7.558247E-1,3.828602E-1,4.6038952E-1,4.8404288E-1,6.3227475E-1,2.642714E-1,3.6092073E-1,1.1127177E0,4.3055946E-1,3.0336353E-1,7.5327885E-1,1.3324843E-1,-6.574645E-1,8.492344E-1,4.9381807E-1,2.188429E-1,5.9408677E-1,1.9296145E-1,9.9253535E-1,3.7141526E-1,1.710149E-1,-7.962199E-2,2.2810498E-1,-1.4093816E-1,1.3618308E-1,4.5278415E-2,2.3010156E-1,3.392873E-1,1.1911209E0,5.289434E-1,2.6978707E-1,7.5591063E-1,9.853415E-1],"categories":[],"categories_nodes":[],"categories_segments":[],"categories_sizes":[],"default_left":[true,true,true,true,true,true,true,true,true,true,true,true,true,true,true,true,true,true,true,true,true,true,true,true,true,true,true,true,true,true,true,true,true,true,true,true,true,true,true,true,false,true,true,true,true,true,true,true,true,true,true,true,true,true,true,true,true,true,true,true,true,true,true,false,false,false,false,false,false,false,false,false,false,false,false,false,false,false,false,false,false,false,false,false,false,false,false,false,false,false,false,false,false,false,false,false,false,false,false,false,false,false,false,false,false,false,false,false,false,false,false,false,false,false,false,false,false,false,false,false,false,false,false,false,false],"id":7,"left_children":[1,3,5,7,9,11,13,15,17,19,21,23,25,27,29,31,33,35,37,39,41,43,45,47,49,51,53,55,57,59,61,63,65,67,69,71,73,75,77,79,-1,81,83,85,87,89,91,93,95,97,99,101,103,105,107,109,111,113,115,117,119,121,123,-1,-1,-1,-1,-1,-1,-1,-1,-1,-1,-1,-1,-1,-1,-1,-1,-1,-1,-1,-1,-1,-1,-1,-1,-1,-1,-1,-1,-1,-1,-1,-1,-1,-1,-1,-1,-1,-1,-1,-1,-1,-1,-1,-1,-1,-1,-1,-1,-1,-1,-1,-1,-1,-1,-1,-1,-1,-1,-1,-1,-1,-1],"loss_changes":[4.8722266E2,4.2288672E2,2.3073438E2,3.2463477E2,1.2560913E2,1.8707617E2,7.344348E1,3.322422E2,4.0517383E2,8.104529E1,5.2433807E1,1.3539062E2,4.9776367E1,5.9493286E1,4.641577E1,3.8048145E2,4.644004E2,1.3561963E2,1.5392871E2,6.978171E1,4.6654175E1,2.6355324E1,6.9493713E0,1.6308008E2,1.7345898E2,4.4843018E1,5.038257E1,5.1578125E1,1.9759956E1,2.433609E1,6.902844E1,3.9620215E2,9.308789E1,4.5514905E2,3.04833E2,1.05878174E2,9.039789E1,5.690222E1,1.0611963E2,4.9708786E1,0E0,3.2367188E1,4.0718903E1,1.8936417E1,2.4025517E1,7.110626E0,1.4702148E0,5.3585938E1,5.762622E1,5.367456E1,7.803223E1,3.1396484E1,3.561986E1,3.0407959E1,4.9426666E1,5.3419174E1,3.438153E1,1.861198E1,2.0798931E1,7.980873E0,1.79039E1,4.7777008E1,2.6920166E0,0E0,0E0,0E0,0E0,0E0,0E0,0E0,0E0,0E0,0E0,0E0,0E0,0E0,0E0,0E0,0E0,0E0,0E0,0E0,0E0,0E0,0E0,0E0,0E0,0E0,0E0,0E0,0E0,0E0,0E0,0E0,0E0,0E0,0E0,0E0,0E0,0E0,0E0,0E0,0E0,0E0,0E0,0E0,0E0,0E0,0E0,0E0,0E0,0E0,0E0,0E0,0E0,0E0,0E0,0E0,0E0,0E0,0E0,0E0,0E0,0E0,0E0],"parents":[2147483647,0,0,1,1,2,2,3,3,4,4,5,5,6,6,7,7,8,8,9,9,10,10,11,11,12,12,13,13,14,14,15,15,16,16,17,17,18,18,19,19,20,20,21,21,22,22,23,23,24,24,25,25,26,26,27,27,28,28,29,29,30,30,31,31,32,32,33,33,34,34,35,35,36,36,37,37,38,38,39,39,41,41,42,42,43,43,44,44,45,45,46,46,47,47,48,48,49,49,50,50,51,51,52,52,53,53,54,54,55,55,56,56,57,57,58,58,59,59,60,60,61,61,62,62],"right_children":[2,4,6,8,10,12,14,16,18,20,22,24,26,28,30,32,34,36,38,40,42,44,46,48,50,52,54,56,58,60,62,64,66,68,70,72,74,76,78,80,-1,82,84,86,88,90,92,94,96,98,100,102,104,106,108,110,112,114,116,118,120,122,124,-1,-1,-1,-1,-1,-1,-1,-1,-1,-1,-1,-1,-1,-1,-1,-1,-1,-1,-1,-1,-1,-1,-1,-1,-1,-1,-1,-1,-1,-1,-1,-1,-1,-1,-1,-1,-1,-1,-1,-1,-1,-1,-1,-1,-1,-1,-1,-1,-1,-1,-1,-1,-1,-1,-1,-1,-1,-1,-1,-1,-1,-1],"split_conditions":[4.65E-1,1.45E1,5E-1,4.5E0,1.795E2,5.5E0,5E-1,4E1,1.795E2,3.65E1,5.5E0,2.5E0,3.1E1,3.5E0,1.5E0,1.315E2,1.5E0,1.085E2,1.15E1,3.55E1,1.45E1,8.8E1,1.11E2,2.5E0,2.5E0,2.65E1,5.95E1,1.5E0,1.5E0,5E-1,8.1E1,3.35E1,4.55E1,2.5E0,9.95E1,4.75E1,1.05E1,3.5E0,2.76E2,9.5E0,9.0964586E-1,9.5E0,6.15E1,1.805E2,4E-2,1.5E0,8.315E2,1.5E0,1.65E1,2.5E0,5.5E0,3.3E1,3E0,1.45E1,2.25E1,7.45E1,8.5E0,1.5E0,5E-1,1.5E0,9.355E2,5E-1,5E0,1.3639571E-1,2.349772E-1,1.8482944E-1,2.892753E-1,3.0543674E-2,1.3185702E-1,1.6153729E-1,9.5558904E-2,1.4428638E-1,2.2391342E-1,-1.6418152E-2,1.1287803E-1,1.3659823E-1,1.9187932E-1,2.2351217E-1,1.0579292E-1,1.4512755E-1,4.2230135E-1,7.52652E-2,1.3307977E-1,2.06474E-1,1.01819E-1,1.4793429E-1,3.1922945E-1,-4.1562393E-2,1.396348E-1,3.738739E-1,2.5736228E-1,1.4852744E-1,2.2674741E-1,1.1485807E-1,1.3811687E-1,1.4521287E-1,1.8968244E-1,7.928143E-2,1.08276226E-1,3.3381534E-1,1.2916784E-1,9.1009066E-2,2.2598366E-1,3.9974533E-2,-1.9723935E-1,2.5477034E-1,1.4814542E-1,6.565287E-2,1.7822604E-1,5.7888437E-2,2.977606E-1,1.1142458E-1,5.1304474E-2,-2.3886599E-2,6.84315E-2,-4.228145E-2,4.0854927E-2,1.3583525E-2,6.903047E-2,1.01786196E-1,3.5733628E-1,1.5868303E-1,8.093613E-2,2.267732E-1,2.9560247E-1],"split_indices":[37,29,35,29,29,5,16,27,30,30,33,13,27,13,35,33,29,27,27,30,31,25,39,7,12,27,33,12,6,3,34,27,38,39,26,33,30,6,27,28,0,28,26,29,37,5,39,7,31,29,30,29,0,30,31,38,34,12,18,5,39,34,5,0,0,0,0,0,0,0,0,0,0,0,0,0,0,0,0,0,0,0,0,0,0,0,0,0,0,0,0,0,0,0,0,0,0,0,0,0,0,0,0,0,0,0,0,0,0,0,0,0,0,0,0,0,0,0,0,0,0,0,0,0,0],"split_type":[0,0,0,0,0,0,0,0,0,0,0,0,0,0,0,0,0,0,0,0,0,0,0,0,0,0,0,0,0,0,0,0,0,0,0,0,0,0,0,0,0,0,0,0,0,0,0,0,0,0,0,0,0,0,0,0,0,0,0,0,0,0,0,0,0,0,0,0,0,0,0,0,0,0,0,0,0,0,0,0,0,0,0,0,0,0,0,0,0,0,0,0,0,0,0,0,0,0,0,0,0,0,0,0,0,0,0,0,0,0,0,0,0,0,0,0,0,0,0,0,0,0,0,0,0],"sum_hessian":[2.91499E5,1.44871E5,1.46628E5,1.27891E5,1.698E4,1.23744E5,2.2884E4,8.9023E4,3.8868E4,1.578E4,1.2E3,1.02396E5,2.1348E4,1.44E4,8.484E3,4.4004E4,4.5019E4,1.8768E4,2.01E4,3.84E2,1.5396E4,6.48E2,5.52E2,4.71E4,5.5296E4,1.8156E4,3.192E3,1.1676E4,2.724E3,5.1E3,3.384E3,4.0656E4,3.348E3,1.6087E4,2.8932E4,1.206E4,6.708E3,6.804E3,1.3296E4,3.72E2,1.2E1,1.38E4,1.596E3,3.84E2,2.64E2,4.44E2,1.08E2,3.6396E4,1.0704E4,2.3748E4,3.1548E4,1.7232E4,9.24E2,1.404E3,1.788E3,5.244E3,6.432E3,1.632E3,1.092E3,1.248E3,3.852E3,2.856E3,5.28E2,3.6576E4,4.08E3,1.212E3,2.136E3,8.748E3,7.339E3,1.9644E4,9.288E3,1.0296E4,1.764E3,5.28E2,6.18E3,3.744E3,3.06E3,1.2564E4,7.32E2,3E2,7.2E1,1.2864E4,9.36E2,4.8E2,1.116E3,3.12E2,7.2E1,1.2E2,1.44E2,6E1,3.84E2,6E1,4.8E1,1.5828E4,2.0568E4,4.704E3,6E3,9.804E3,1.3944E4,1.68E2,3.138E4,1.7076E4,1.56E2,8.64E2,6E1,3.12E2,1.092E3,1.308E3,4.8E2,5.16E3,8.4E1,5.412E3,1.02E3,2.28E2,1.404E3,4.92E2,6E2,3.12E2,9.36E2,3.828E3,2.4E1,1.38E3,1.476E3,4.56E2,7.2E1],"tree_param":{"num_deleted":"0","num_feature":"42","num_nodes":"125","size_leaf_vector":"0"}},{"base_weights":[2.9755634E-1,3.4593746E-1,2.775498E-1,3.632874E-1,2.2881733E-1,2.8695607E-1,1.8771218E-1,1.9625148E-1,3.7960863E-1,2.767101E-2,2.7692083E-1,2.6510042E-1,3.8176796E-1,2.1904035E-1,1.0535442E-1,4.891759E-2,3.1159487E-1,3.9678383E-1,2.4181516E-1,-2.9446292E-1,1.4090203E-1,3.2378477E-1,2.9838054E-2,2.197842E-1,2.8295076E-1,3.9905542E-1,2.1580042E-1,2.0229769E-1,4.965717E-1,5.897927E-2,1.6356559E-1,-2.4544655E-1,1.9706419E-1,2.9731223E-1,1.3723545E0,3.0072746E-1,4.2318508E-1,2.3144013E-1,7.25655E-1,-2.271323E-1,-9.8237115E-1,1.6125098E-1,-2.794359E-1,2.3859982E-1,4.1054115E-1,5.1933557E-1,-2.084911E-2,1.3549538E-1,2.534546E-1,2.5034836E-1,3.062128E-1,3.515875E-1,4.919808E-1,2.970538E-1,-3.407479E-1,2.4845071E-1,1.1106723E-1,1.9430727E0,3.5183617E-1,4.10889E-2,4.110745E-1,2.4409881E-1,8.6843334E-2,-4.3390945E-2,-4.9733254E-1,6.78603E-1,1.1234579E-1,2.7992678E-1,1.1479838E0,1.7073971E0,9.824177E-1,1.6925822E-1,3.7670028E-1,1.0596851E0,4.1612485E-1,6.4483285E-1,2.2025374E-1,5.3169256E-1,2.8332622E0,-4.6120968E-1,-2.1449392E-1,-7.5588125E-1,-1.1695662E0,-3.102597E-1,1.7304938E-1,-4.546393E-2,-7.268436E-1,2.9808205E-1,8.0766834E-2,3.2177395E-1,7.921478E-1,1.9569016E-1,7.8266484E-1,2.9328573E-1,-5.3458095E-2,4.1401856E-2,1.804862E-1,2.144641E-1,3.0618802E-1,2.909741E-1,1.988592E-1,2.8795722E-1,4.5592725E-1,3.5890737E-1,-4.062392E-2,9.994811E-1,4.7483203E-1,2.0247798E-1,4.1436166E-1,-3.82902E-1,1.0116965E0,1.6912338E-1,2.9792488E-1,3.4964222E-2,1.9942808E-1,2.4955096E0,1.6215625E0,2.8265226E-1,6.994221E-1,-5.125042E-2,8.5254855E-2,-2.9506874E-1,4.770052E-1,6.268275E-1,1.9954929E-1,-4.2801872E-1,1.1936552E-1],"categories":[],"categories_nodes":[],"categories_segments":[],"categories_sizes":[],"default_left":[true,true,true,true,true,true,true,true,true,true,true,true,true,true,true,true,true,true,true,true,true,true,true,true,true,true,true,true,true,true,true,true,true,true,true,true,true,true,true,true,true,true,true,true,true,true,true,true,true,true,true,true,true,true,true,true,true,true,true,true,true,true,true,false,false,false,false,false,false,false,false,false,false,false,false,false,false,false,false,false,false,false,false,false,false,false,false,false,false,false,false,false,false,false,false,false,false,false,false,false,false,false,false,false,false,false,false,false,false,false,false,false,false,false,false,false,false,false,false,false,false,false,false,false,false,false,false],"id":8,"left_children":[1,3,5,7,9,11,13,15,17,19,21,23,25,27,29,31,33,35,37,39,41,43,45,47,49,51,53,55,57,59,61,63,65,67,69,71,73,75,77,79,81,83,85,87,89,91,93,95,97,99,101,103,105,107,109,111,113,115,117,119,121,123,125,-1,-1,-1,-1,-1,-1,-1,-1,-1,-1,-1,-1,-1,-1,-1,-1,-1,-1,-1,-1,-1,-1,-1,-1,-1,-1,-1,-1,-1,-1,-1,-1,-1,-1,-1,-1,-1,-1,-1,-1,-1,-1,-1,-1,-1,-1,-1,-1,-1,-1,-1,-1,-1,-1,-1,-1,-1,-1,-1,-1,-1,-1,-1,-1],"loss_changes":[2.820586E2,1.7319336E2,1.742168E2,2.0239941E2,1.06474976E2,3.8673242E2,5.041565E1,1.1236604E2,1.6002344E2,7.755204E1,1.0282593E2,1.2265918E2,1.00245605E2,6.570026E1,1.4538235E1,1.2673265E2,5.5785065E1,1.5243164E2,3.7486023E1,2.5390331E1,1.3499615E1,5.5070923E1,3.5168354E1,1.2165234E2,8.246484E1,1.3951807E2,1.4937721E2,5.621289E1,1.6785121E2,1.888675E1,1.47397E1,4.949923E1,7.878088E1,5.3822266E1,4.724251E0,1.295116E2,2.1160059E2,3.3823975E1,6.2674637E1,1.3950462E0,1.1934395E0,8.403854E0,7.6086574E0,3.5360275E1,1.24977905E2,1.1181805E1,1.3178726E1,5.1812912E1,6.2927124E1,9.47522E1,1.7345459E2,6.0203613E1,9.269092E1,3.1879333E1,2.4389046E1,3.4757385E1,3.0179424E1,8.919189E0,1.7429016E1,1.1655941E1,6.891447E0,1.9738617E1,2.0563032E1,0E0,0E0,0E0,0E0,0E0,0E0,0E0,0E0,0E0,0E0,0E0,0E0,0E0,0E0,0E0,0E0,0E0,0E0,0E0,0E0,0E0,0E0,0E0,0E0,0E0,0E0,0E0,0E0,0E0,0E0,0E0,0E0,0E0,0E0,0E0,0E0,0E0,0E0,0E0,0E0,0E0,0E0,0E0,0E0,0E0,0E0,0E0,0E0,0E0,0E0,0E0,0E0,0E0,0E0,0E0,0E0,0E0,0E0,0E0,0E0,0E0,0E0,0E0,0E0],"parents":[2147483647,0,0,1,1,2,2,3,3,4,4,5,5,6,6,7,7,8,8,9,9,10,10,11,11,12,12,13,13,14,14,15,15,16,16,17,17,18,18,19,19,20,20,21,21,22,22,23,23,24,24,25,25,26,26,27,27,28,28,29,29,30,30,31,31,32,32,33,33,34,34,35,35,36,36,37,37,38,38,39,39,40,40,41,41,42,42,43,43,44,44,45,45,46,46,47,47,48,48,49,49,50,50,51,51,52,52,53,53,54,54,55,55,56,56,57,57,58,58,59,59,60,60,61,61,62,62],"right_children":[2,4,6,8,10,12,14,16,18,20,22,24,26,28,30,32,34,36,38,40,42,44,46,48,50,52,54,56,58,60,62,64,66,68,70,72,74,76,78,80,82,84,86,88,90,92,94,96,98,100,102,104,106,108,110,112,114,116,118,120,122,124,126,-1,-1,-1,-1,-1,-1,-1,-1,-1,-1,-1,-1,-1,-1,-1,-1,-1,-1,-1,-1,-1,-1,-1,-1,-1,-1,-1,-1,-1,-1,-1,-1,-1,-1,-1,-1,-1,-1,-1,-1,-1,-1,-1,-1,-1,-1,-1,-1,-1,-1,-1,-1,-1,-1,-1,-1,-1,-1,-1,-1,-1,-1,-1,-1],"split_conditions":[1.3499999E-1,2.78E2,1.05E1,2.35E1,3.805E2,4.5E0,3.5E0,2.5E0,1.3E1,1.5E0,5.5E0,3.85E1,2.76E2,3.25E1,1.825E2,8E0,1.3E1,5E-1,1.945E2,7E0,4.5E0,1.5E0,8.05E1,5E-1,2E0,2.3E1,6.5E0,4.5E0,4E1,1.35E2,4.25E-1,1.05E1,3.15E1,2.07E2,5.5E0,5E-1,5.5E0,3.65E1,9.95E1,4.9E1,2.5E0,5E-1,7.55E1,8.35E1,6.5E0,5E-1,6.65E1,8.5E0,2.5E0,5.55E1,1.31E2,4.5E0,3.15E1,3.5E0,9.8E1,1.5E0,1.6E1,3.5E0,5.35E1,7.7E1,3E0,4.85E1,2.5E0,-1.3017284E-2,-1.4919977E-1,2.035809E-1,3.370374E-2,8.3978035E-2,3.4439516E-1,5.1221913E-1,2.9472533E-1,5.077747E-2,1.13010086E-1,3.1790555E-1,1.2483746E-1,1.9344987E-1,6.607612E-2,1.5950778E-1,8.499787E-1,-1.3836291E-1,-6.4348176E-2,-2.2676438E-1,-3.5086986E-1,-9.307791E-2,5.1914815E-2,-1.363918E-2,-2.1805309E-1,8.942462E-2,2.4230052E-2,9.653219E-2,2.3764436E-1,5.8707047E-2,2.3479946E-1,8.7985724E-2,-1.6037429E-2,1.2420557E-2,5.414586E-2,6.4339235E-2,9.1856405E-2,8.729224E-2,5.9657764E-2,8.638717E-2,1.3677818E-1,1.07672215E-1,-1.2187176E-2,2.9984432E-1,1.4244962E-1,6.0743395E-2,1.24308504E-1,-1.148706E-1,3.0350894E-1,5.0737016E-2,8.937746E-2,1.0489267E-2,5.9828427E-2,7.4865294E-1,4.8646876E-1,8.479568E-2,2.0982665E-1,-1.5375127E-2,2.5576457E-2,-8.8520624E-2,1.4310157E-1,1.8804826E-1,5.986479E-2,-1.2840562E-1,3.580966E-2],"split_indices":[37,27,29,38,27,29,13,29,29,29,5,38,27,29,39,26,28,20,27,28,6,29,39,18,39,34,40,33,29,29,37,27,26,27,26,14,30,30,26,38,4,3,38,38,40,14,38,32,29,33,34,35,38,7,25,12,27,5,27,26,12,26,7,0,0,0,0,0,0,0,0,0,0,0,0,0,0,0,0,0,0,0,0,0,0,0,0,0,0,0,0,0,0,0,0,0,0,0,0,0,0,0,0,0,0,0,0,0,0,0,0,0,0,0,0,0,0,0,0,0,0,0,0,0,0,0,0],"split_type":[0,0,0,0,0,0,0,0,0,0,0,0,0,0,0,0,0,0,0,0,0,0,0,0,0,0,0,0,0,0,0,0,0,0,0,0,0,0,0,0,0,0,0,0,0,0,0,0,0,0,0,0,0,0,0,0,0,0,0,0,0,0,0,0,0,0,0,0,0,0,0,0,0,0,0,0,0,0,0,0,0,0,0,0,0,0,0,0,0,0,0,0,0,0,0,0,0,0,0,0,0,0,0,0,0,0,0,0,0,0,0,0,0,0,0,0,0,0,0,0,0,0,0,0,0,0,0],"sum_hessian":[2.91499E5,8.5272E4,2.06227E5,7.4268E4,1.1004E4,1.86679E5,1.9548E4,6.612E3,6.7656E4,2.124E3,8.88E3,1.51711E5,3.4968E4,1.416E4,5.388E3,2.904E3,3.708E3,6.0156E4,7.5E3,5.52E2,1.572E3,7.464E3,1.416E3,4.2876E4,1.08835E5,3.1668E4,3.3E3,1.3356E4,8.04E2,3E3,2.388E3,9.72E2,1.932E3,3.66E3,4.8E1,1.2972E4,4.7184E4,7.344E3,1.56E2,5.04E2,4.8E1,1.5E3,7.2E1,3.768E3,3.696E3,1.32E2,1.284E3,1.224E4,3.0636E4,4.5324E4,6.3511E4,2.0964E4,1.0704E4,2.88E3,4.2E2,8.868E3,4.488E3,7.2E1,7.32E2,2.856E3,1.44E2,1.164E3,1.224E3,5.4E2,4.32E2,2.88E2,1.644E3,3.588E3,7.2E1,2.4E1,2.4E1,4.752E3,8.22E3,5.16E2,4.6668E4,1.92E2,7.152E3,1.44E2,1.2E1,2.4E1,4.8E2,2.4E1,2.4E1,3.6E1,1.464E3,4.8E1,2.4E1,2.736E3,1.032E3,3E3,6.96E2,6E1,7.2E1,1.2E2,1.164E3,3.96E3,8.28E3,1.7616E4,1.302E4,2.5332E4,1.9992E4,5.6611E4,6.9E3,2.058E4,3.84E2,3.48E2,1.0356E4,1.596E3,1.284E3,4.08E2,1.2E1,3.408E3,5.46E3,2.412E3,2.076E3,2.4E1,4.8E1,6.12E2,1.2E2,9.24E2,1.932E3,1.2E1,1.32E2,1.2E2,1.044E3,7.2E1,1.152E3],"tree_param":{"num_deleted":"0","num_feature":"42","num_nodes":"127","size_leaf_vector":"0"}},{"base_weights":[2.0831144E-1,2.0265263E-1,3.402237E-1,1.53695E-1,2.1473238E-1,2.7569208E-1,4.122135E-1,1.0807126E-1,2.05034E-1,2.2584677E-1,1.4865023E-1,-6.313932E-1,2.8448004E-1,5.6781065E-1,3.4713873E-1,1.4462724E-1,4.0131293E-2,2.4145663E-1,1.6444162E-1,1.9606191E-1,2.5589645E-1,2.2162585E-1,1.219707E-1,-2.7362707E0,-6.0070757E-2,2.4914226E-1,3.735891E-1,2.2834632E0,5.540078E-1,-1.0209445E-1,3.7893614E-1,9.758655E-2,2.0800099E-1,1.1458367E-1,-8.1728E-3,1.6567299E-1,2.664935E-1,1.3369036E-1,2.8171796E-1,1.6327257E-1,2.2775535E-1,1.9556303E-1,2.7121326E-1,5.950594E-1,2.1198113E-1,5.780745E-2,1.507445E-1,3.19987E-1,-4.3772566E-1,2.5309137E-1,-1.1300356E0,2.402623E-1,5.177318E-1,7.4090594E-1,4.716682E-1,-8.1265527E-1,5.8825243E-2,3.059703E-1,5.217319E-1,1.2733063E-1,7.4193114E-3,3.113999E-1,1.7211579E-1,-1.4083951E-2,1.9078404E-1,1.771263E-2,-1.417992E-1,3.61817E-2,2.3279624E-1,2.2996087E-1,3.5690346E-1,5.681916E-1,1.21547036E-1,2.171091E-1,5.5176973E-1,1.411273E-1,2.5435287E-1,2.1871835E-1,4.087895E-1,2.3631819E-1,1.4654642E-1,2.8461105E-1,1.8552494E-1,-2.0123038E-1,8.224153E-1,1.6316617E-1,2.854818E-1,1.5501873E-1,2.2927653E-2,1.2784237E-1,3.199544E-1,5.008291E-1,1.1453049E-1,2.496058E-1,1.4307815E0,5.306538E-1,1.63474E-1,2.810334E-1,7.1093255E-1,2.3493527E-1,8.5909235E-1,-2.3387446E-1,4.9461666E-1,-6.453973E-1,-1.2261851E0,7.427161E-1,-3.0066444E-2,3.5478276E-1,2.0438781E-1,6.493137E-1,3.4396413E-1],"categories":[],"categories_nodes":[],"categories_segments":[],"categories_sizes":[],"default_left":[true,true,true,true,true,true,true,true,true,true,true,true,true,true,true,true,true,true,true,true,true,true,true,false,true,true,true,false,true,true,true,true,true,true,true,true,true,true,true,true,true,true,true,true,true,true,true,true,false,true,false,true,true,true,true,true,true,true,true,false,false,false,false,false,false,false,false,false,false,false,false,false,false,false,false,false,false,false,false,false,false,false,false,false,false,false,false,false,false,false,false,false,false,false,false,false,false,false,false,false,false,false,false,false,false,false,false,false,false,false,false],"id":9,"left_children":[1,3,5,7,9,11,13,15,17,19,21,23,25,27,29,31,33,35,37,39,41,43,45,-1,47,49,51,-1,53,55,57,59,61,63,65,67,69,71,73,75,77,79,81,83,85,87,89,91,-1,93,-1,95,97,99,101,103,105,107,109,-1,-1,-1,-1,-1,-1,-1,-1,-1,-1,-1,-1,-1,-1,-1,-1,-1,-1,-1,-1,-1,-1,-1,-1,-1,-1,-1,-1,-1,-1,-1,-1,-1,-1,-1,-1,-1,-1,-1,-1,-1,-1,-1,-1,-1,-1,-1,-1,-1,-1,-1,-1],"loss_changes":[2.1752637E2,1.6526855E2,5.5582764E1,1.2955493E2,1.6462695E2,5.0598846E1,5.7163574E1,7.274664E1,3.8443604E1,1.7171582E2,6.2822693E1,7.3192024E1,1.9634918E1,3.82583E1,5.7133575E1,5.6755615E1,3.6859978E1,2.59823E1,4.436786E1,1.0012695E2,8.8226074E1,3.0995789E1,4.3637787E1,0E0,7.1730695E0,2.4735443E1,3.4026154E1,0E0,2.515033E1,3.0348759E1,3.873529E1,2.9320732E1,3.0049591E1,3.9544315E1,2.1506971E1,2.9622177E1,3.396759E1,5.141165E1,4.4494064E1,9.5523315E1,8.00896E1,3.8610474E1,8.740918E1,3.9451424E1,3.0181763E1,2.481983E1,6.3207336E1,8.7151957E-1,0E0,1.80206E1,0E0,2.053952E1,3.880815E1,2.9996613E1,1.8784027E1,2.5977669E0,1.3214239E1,1.2189835E1,2.8376068E1,0E0,0E0,0E0,0E0,0E0,0E0,0E0,0E0,0E0,0E0,0E0,0E0,0E0,0E0,0E0,0E0,0E0,0E0,0E0,0E0,0E0,0E0,0E0,0E0,0E0,0E0,0E0,0E0,0E0,0E0,0E0,0E0,0E0,0E0,0E0,0E0,0E0,0E0,0E0,0E0,0E0,0E0,0E0,0E0,0E0,0E0,0E0,0E0,0E0,0E0,0E0,0E0],"parents":[2147483647,0,0,1,1,2,2,3,3,4,4,5,5,6,6,7,7,8,8,9,9,10,10,11,11,12,12,13,13,14,14,15,15,16,16,17,17,18,18,19,19,20,20,21,21,22,22,24,24,25,25,26,26,28,28,29,29,30,30,31,31,32,32,33,33,34,34,35,35,36,36,37,37,38,38,39,39,40,40,41,41,42,42,43,43,44,44,45,45,46,46,47,47,49,49,51,51,52,52,53,53,54,54,55,55,56,56,57,57,58,58],"right_children":[2,4,6,8,10,12,14,16,18,20,22,24,26,28,30,32,34,36,38,40,42,44,46,-1,48,50,52,-1,54,56,58,60,62,64,66,68,70,72,74,76,78,80,82,84,86,88,90,92,-1,94,-1,96,98,100,102,104,106,108,110,-1,-1,-1,-1,-1,-1,-1,-1,-1,-1,-1,-1,-1,-1,-1,-1,-1,-1,-1,-1,-1,-1,-1,-1,-1,-1,-1,-1,-1,-1,-1,-1,-1,-1,-1,-1,-1,-1,-1,-1,-1,-1,-1,-1,-1,-1,-1,-1,-1,-1,-1,-1],"split_conditions":[9.5E0,1.5E0,5E-1,5E-1,5.5E0,1.05E1,3.35E1,2.5E0,3.825E2,1.5E0,6.15E1,2.5E0,1.25E1,1.5E0,2.5E0,1.5E0,2.45E1,5E-1,3.365E2,9.75E1,1.5E0,5.5E0,3.5E0,-8.2088125E-1,3.5E0,1.115E2,9.45E1,6.85039E-1,3.45E1,2.6E1,4.5E0,1.5E0,1.5E0,8.95E1,3.5E0,2.45E1,3.5E0,5E-1,1.425E2,8.95E1,8.5E0,3.5E0,2.35E2,1.5E0,4.75E1,1.5E0,1.8E2,4E0,-1.313177E-1,5E-1,-3.3901072E-1,3.6E1,3.5E0,2.5E0,5E-1,3.5E0,3.5E0,3.5E0,1.71E2,3.819919E-2,2.2257934E-3,9.341998E-2,5.163474E-2,-4.2251856E-3,5.7235215E-2,5.3137895E-3,-4.253976E-2,1.0854511E-2,6.9838874E-2,6.898826E-2,1.0707104E-1,1.7045748E-1,3.6464114E-2,6.513273E-2,1.6553092E-1,4.2338192E-2,7.6305866E-2,6.5615505E-2,1.2263685E-1,7.0895456E-2,4.3963928E-2,8.538332E-2,5.5657484E-2,-6.0369115E-2,2.4672459E-1,4.8949853E-2,8.564454E-2,4.6505623E-2,6.8782964E-3,3.8352713E-2,9.598632E-2,1.5024874E-1,3.435915E-2,7.488175E-2,4.2923447E-1,1.5919614E-1,4.90422E-2,8.4310025E-2,2.1327977E-1,7.0480585E-2,2.577277E-1,-7.016234E-2,1.48385E-1,-1.936192E-1,-3.6785555E-1,2.2281483E-1,-9.019934E-3,1.0643483E-1,6.1316345E-2,1.9479412E-1,1.03189245E-1],"split_indices":[28,12,16,16,5,30,27,13,30,5,30,4,28,4,40,7,31,20,39,26,33,30,40,0,4,38,26,0,38,38,5,13,13,26,13,33,29,34,33,33,40,13,27,33,38,27,27,0,0,23,0,38,12,9,2,0,5,4,39,0,0,0,0,0,0,0,0,0,0,0,0,0,0,0,0,0,0,0,0,0,0,0,0,0,0,0,0,0,0,0,0,0,0,0,0,0,0,0,0,0,0,0,0,0,0,0,0,0,0,0,0],"split_type":[0,0,0,0,0,0,0,0,0,0,0,0,0,0,0,0,0,0,0,0,0,0,0,0,0,0,0,0,0,0,0,0,0,0,0,0,0,0,0,0,0,0,0,0,0,0,0,0,0,0,0,0,0,0,0,0,0,0,0,0,0,0,0,0,0,0,0,0,0,0,0,0,0,0,0,0,0,0,0,0,0,0,0,0,0,0,0,0,0,0,0,0,0,0,0,0,0,0,0,0,0,0,0,0,0,0,0,0,0,0,0],"sum_hessian":[2.91499E5,2.79511E5,1.1988E4,5.532E4,2.24191E5,6.324E3,5.664E3,2.9292E4,2.6028E4,1.91911E5,3.228E4,6E1,6.264E3,1.668E3,3.996E3,1.9044E4,1.0248E4,1.3716E4,1.2312E4,9.6384E4,9.5527E4,8.64E3,2.364E4,1.2E1,4.8E1,4.488E3,1.776E3,1.2E1,1.656E3,2.64E2,3.732E3,1.0932E4,8.112E3,4.032E3,6.216E3,3.408E3,1.0308E4,9.756E3,2.556E3,4.7376E4,4.9008E4,1.9344E4,7.6183E4,2.16E2,8.424E3,7.32E3,1.632E4,2.4E1,2.4E1,4.476E3,1.2E1,9.24E2,8.52E2,5.04E2,1.152E3,4.8E1,2.16E2,2.472E3,1.26E3,8.22E3,2.712E3,2.088E3,6.024E3,1.5E3,2.532E3,5.208E3,1.008E3,1.164E3,2.244E3,7.344E3,2.964E3,2.64E2,9.492E3,2.064E3,4.92E2,3.8112E4,9.264E3,4.668E4,2.328E3,1.056E4,8.784E3,6.588E4,1.0303E4,4.8E1,1.68E2,5.064E3,3.36E3,1.932E3,5.388E3,1.4376E4,1.944E3,1.2E1,1.2E1,4.464E3,1.2E1,1.92E2,7.32E2,3.84E2,4.68E2,9.6E1,4.08E2,3.6E1,1.116E3,3.6E1,1.2E1,2.4E1,1.92E2,1.668E3,8.04E2,7.32E2,5.28E2],"tree_param":{"num_deleted":"0","num_feature":"42","num_nodes":"111","size_leaf_vector":"0"}},{"base_weights":[1.458285E-1,1.203552E-1,1.6194911E-1,1.6515468E-1,8.890771E-2,2.3285201E-1,1.4911413E-1,1.4296438E-1,2.528441E-1,1.09788164E-1,5.5170186E-2,2.7512148E-1,1.8375349E-1,1.0479855E-1,1.6729753E-1,-1.8666367E-1,1.4771685E-1,1.6931155E-1,3.0374923E-1,3.7985407E-2,1.371947E-1,2.2558782E-2,1.03888005E-1,2.9302952E-1,1.5583055E-1,1.6449876E-1,3.0638555E-1,-1.1933519E0,1.0588916E-1,6.46616E-1,1.6415852E-1,2.9034206E-1,-2.9309067E-1,1.3278948E-1,2.0740014E-1,1.4393818E-1,3.415577E-1,3.823164E-1,2.2475472E-1,-5.2406386E-2,5.2296717E-2,6.2341845E-1,1.3599114E-1,3.0921316E-2,-1.1817979E-1,3.0473754E-1,9.180655E-2,-1.210536E-1,2.9775763E-1,-2.0107426E-2,2.8913042E-1,-3.357481E-2,1.7526335E-1,2.601797E-1,8.0552644E-1,-5.78907E-1,-2.2831805E0,1.5665875E-1,8.098547E-2,3.1224802E-1,1.3285897E0,-4.7407612E-1,1.6574927E-1,2.3579404E-1,5.331684E-1,-3.2532012E-1,2.4590698E-1,1.2433101E-1,2.2315674E-1,1.7071311E-1,3.0980015E-1,2.095104E-1,6.549239E-2,3.912696E-1,-1.3863919E0,5.5655926E-1,3.0020508E-1,-1.20752856E-1,2.5409517E-1,-1.4465235E-1,5.372996E-2,-1.49569E-2,7.762896E-2,7.22766E-1,1.0929401E-1,-2.3835343E-1,1.3752276E-1,-8.197369E-1,3.2403313E-2,-3.6633915E-1,-6.72612E-2,2.0047827E-1,7.5054353E-1,4.0348742E-2,1.2829712E-1,2.7542973E-1,-3.20091E-1,3.219441E-1,2.1255314E-1,7.597916E-1,-6.9012605E-2,2.4476089E-1,6.075514E-1,1.229365E-1,-4.4108787E-1,-1.6780559E-2,1.8779866E-1,2.7141264E-1,-1.1086521E0,4.4344788E0,4.447602E-1,-2.841547E-1,-8.2912797E-1,1.3283575E-1,2.675138E-1,3.185016E-2,1.4541315E-1,3.3409156E-2,4.6776804E-1,-2.2159937E-1,1.5111561E0,-6.192668E-1,2.1631476E-2,2.0687449E-1,1.4810716E-1],"categories":[],"categories_nodes":[],"categories_segments":[],"categories_sizes":[],"default_left":[true,true,true,true,true,true,true,true,true,true,true,true,true,true,true,true,true,true,true,true,true,true,true,true,true,true,true,true,true,true,true,true,true,true,true,true,true,true,true,true,true,true,true,true,true,true,true,true,true,true,true,true,true,true,true,true,false,true,true,true,true,true,true,false,false,false,false,false,false,false,false,false,false,false,false,false,false,false,false,false,false,false,false,false,false,false,false,false,false,false,false,false,false,false,false,false,false,false,false,false,false,false,false,false,false,false,false,false,false,false,false,false,false,false,false,false,false,false,false,false,false,false,false,false,false],"id":10,"left_children":[1,3,5,7,9,11,13,15,17,19,21,23,25,27,29,31,33,35,37,39,41,43,45,47,49,51,53,55,57,59,61,63,65,67,69,71,73,75,77,79,81,83,85,87,89,91,93,95,97,99,101,103,105,107,109,111,-1,113,115,117,119,121,123,-1,-1,-1,-1,-1,-1,-1,-1,-1,-1,-1,-1,-1,-1,-1,-1,-1,-1,-1,-1,-1,-1,-1,-1,-1,-1,-1,-1,-1,-1,-1,-1,-1,-1,-1,-1,-1,-1,-1,-1,-1,-1,-1,-1,-1,-1,-1,-1,-1,-1,-1,-1,-1,-1,-1,-1,-1,-1,-1,-1,-1,-1],"loss_changes":[1.19683105E2,1.591565E2,1.624253E2,9.0634766E1,4.6759155E1,5.673352E1,1.2178833E2,5.828589E1,3.9957886E1,8.068704E1,4.0321884E1,3.135962E1,2.9845337E1,6.2393463E1,1.611543E2,2.6940462E1,3.2634277E1,1.553154E1,3.6190308E1,1.4658216E1,1.7282288E1,1.7898891E1,2.4667068E1,2.5059082E1,4.5058086E1,2.334256E1,3.9389984E1,2.3454918E1,5.5549164E1,1.5852219E2,1.0818799E2,1.1591139E0,7.601906E0,2.239038E1,2.7495392E1,1.5978561E1,3.9798576E1,4.1739075E1,2.9601334E1,1.5173487E1,1.6664907E1,3.6496258E0,1.7006836E1,1.8121002E1,1.0753805E1,2.6668144E1,1.8022865E1,1.153084E1,2.5973877E1,3.1671412E1,1.5293411E1,3.6090157E1,2.4993683E1,2.4487373E1,1.8786221E2,1.6082296E0,0E0,3.815454E1,9.333525E1,2.032257E1,6.5144745E1,1.9086006E1,7.703589E1,0E0,0E0,0E0,0E0,0E0,0E0,0E0,0E0,0E0,0E0,0E0,0E0,0E0,0E0,0E0,0E0,0E0,0E0,0E0,0E0,0E0,0E0,0E0,0E0,0E0,0E0,0E0,0E0,0E0,0E0,0E0,0E0,0E0,0E0,0E0,0E0,0E0,0E0,0E0,0E0,0E0,0E0,0E0,0E0,0E0,0E0,0E0,0E0,0E0,0E0,0E0,0E0,0E0,0E0,0E0,0E0,0E0,0E0,0E0,0E0,0E0,0E0],"parents":[2147483647,0,0,1,1,2,2,3,3,4,4,5,5,6,6,7,7,8,8,9,9,10,10,11,11,12,12,13,13,14,14,15,15,16,16,17,17,18,18,19,19,20,20,21,21,22,22,23,23,24,24,25,25,26,26,27,27,28,28,29,29,30,30,31,31,32,32,33,33,34,34,35,35,36,36,37,37,38,38,39,39,40,40,41,41,42,42,43,43,44,44,45,45,46,46,47,47,48,48,49,49,50,50,51,51,52,52,53,53,54,54,55,55,57,57,58,58,59,59,60,60,61,61,62,62],"right_children":[2,4,6,8,10,12,14,16,18,20,22,24,26,28,30,32,34,36,38,40,42,44,46,48,50,52,54,56,58,60,62,64,66,68,70,72,74,76,78,80,82,84,86,88,90,92,94,96,98,100,102,104,106,108,110,112,-1,114,116,118,120,122,124,-1,-1,-1,-1,-1,-1,-1,-1,-1,-1,-1,-1,-1,-1,-1,-1,-1,-1,-1,-1,-1,-1,-1,-1,-1,-1,-1,-1,-1,-1,-1,-1,-1,-1,-1,-1,-1,-1,-1,-1,-1,-1,-1,-1,-1,-1,-1,-1,-1,-1,-1,-1,-1,-1,-1,-1,-1,-1,-1,-1,-1,-1],"split_conditions":[2.5E0,1.5E0,2.5E0,1.5E0,2.5E0,2.45E1,5E-1,5E-1,8.5E0,1.5E0,1.05E1,1.6E1,2.56E2,1.5E0,5.5E0,5E-1,1.5E0,7.5E0,2.05E1,2.75E1,5E-1,2.16E2,9.5E0,5E-1,5.5E0,2.15E1,5.5E0,5E-1,3.5E0,2.1E1,6.5E0,1.05E1,1.5E1,4.5E0,2.165E2,1.1245E3,5.5E0,9.55E1,2.85E1,2.5E0,9.6E1,3E0,5E-1,1.5E-2,1.5E0,4.4E1,9.85E1,5E-1,1.825E0,4E-2,7.5E0,1.85E1,2.45E1,1.5E0,1.5E0,1.5E0,-6.8495417E-1,3.5E0,7.5E0,9.9E1,9.9E1,8.05E1,5.65E1,7.073821E-2,1.5995052E-1,-9.759604E-2,7.3772095E-2,3.7299305E-2,6.694702E-2,5.1213935E-2,9.294005E-2,6.285312E-2,1.9647717E-2,1.1738088E-1,-4.1591758E-1,1.6696778E-1,9.006153E-2,-3.622586E-2,7.622855E-2,-4.3395706E-2,1.6118988E-2,-4.4870703E-3,2.328869E-2,2.168298E-1,3.2788206E-2,-7.150603E-2,4.125683E-2,-2.4592108E-1,9.720994E-3,-1.0990175E-1,-2.0178359E-2,6.0143482E-2,2.2516307E-1,1.2104623E-2,3.8489137E-2,8.262892E-2,-9.602731E-2,9.658323E-2,6.376594E-2,2.2793749E-1,-2.0703781E-2,7.3428266E-2,1.8226543E-1,3.688095E-2,-1.3232636E-1,-5.034168E-3,5.6339603E-2,8.14238E-2,-3.3259565E-1,1.3303437E0,1.3342807E-1,-8.5246414E-2,-2.487384E-1,3.9850727E-2,8.0254145E-2,9.555048E-3,4.3623947E-2,1.0022747E-2,1.4033042E-1,-6.647982E-2,4.5334685E-1,-1.8578005E-1,6.489443E-3,6.206235E-2,4.443215E-2],"split_indices":[7,13,13,7,13,27,20,40,31,7,27,29,33,30,30,2,8,40,34,38,2,31,33,40,31,38,5,3,13,33,30,41,31,6,39,30,6,25,27,29,30,10,40,37,9,27,25,2,37,37,32,38,34,37,8,0,0,7,33,25,25,26,26,0,0,0,0,0,0,0,0,0,0,0,0,0,0,0,0,0,0,0,0,0,0,0,0,0,0,0,0,0,0,0,0,0,0,0,0,0,0,0,0,0,0,0,0,0,0,0,0,0,0,0,0,0,0,0,0,0,0,0,0,0,0],"split_type":[0,0,0,0,0,0,0,0,0,0,0,0,0,0,0,0,0,0,0,0,0,0,0,0,0,0,0,0,0,0,0,0,0,0,0,0,0,0,0,0,0,0,0,0,0,0,0,0,0,0,0,0,0,0,0,0,0,0,0,0,0,0,0,0,0,0,0,0,0,0,0,0,0,0,0,0,0,0,0,0,0,0,0,0,0,0,0,0,0,0,0,0,0,0,0,0,0,0,0,0,0,0,0,0,0,0,0,0,0,0,0,0,0,0,0,0,0,0,0,0,0,0,0,0,0],"sum_hessian":[2.91499E5,1.1298E5,1.78519E5,4.6596E4,6.6384E4,2.736E4,1.51159E5,3.7188E4,9.408E3,4.1004E4,2.538E4,1.47E4,1.266E4,4.398E4,1.07179E5,5.28E2,3.666E4,3.564E3,5.844E3,1.1328E4,2.9676E4,1.5204E4,1.0176E4,1.278E4,1.92E3,1.0944E4,1.716E3,3.6E1,4.3944E4,6.96E2,1.06483E5,9.6E1,4.32E2,2.9328E4,7.332E3,3.108E3,4.56E2,2.928E3,2.916E3,1.548E3,9.78E3,7.2E1,2.9604E4,1.4352E4,8.52E2,5.76E2,9.6E3,1.44E2,1.2636E4,8.28E2,1.092E3,5.64E2,1.038E4,1.572E3,1.44E2,2.4E1,1.2E1,1.446E4,2.9484E4,4.68E2,2.28E2,2.64E2,1.06219E5,8E1,1.6E1,4.08E2,2.4E1,2.682E4,2.508E3,5.4E3,1.932E3,1.692E3,1.416E3,4.44E2,1.2E1,9.36E2,1.992E3,2.28E2,2.688E3,8.28E2,7.2E2,2.676E3,7.104E3,6E1,1.2E1,1.2E2,2.9484E4,2.4E1,1.4328E4,1.44E2,7.08E2,4.68E2,1.08E2,3.984E3,5.616E3,4.8E1,9.6E1,9.84E3,2.796E3,4.8E1,7.8E2,9.6E2,1.32E2,4.08E2,1.56E2,6.36E2,9.744E3,1.56E3,1.2E1,1.2E1,1.32E2,1.2E1,1.2E1,1.1904E4,2.556E3,1.6728E4,1.2756E4,1.68E2,3E2,2.4E1,2.04E2,2.04E2,6E1,3.1884E4,7.4335E4],"tree_param":{"num_deleted":"0","num_feature":"42","num_nodes":"125","size_leaf_vector":"0"}},{"base_weights":[1.0208722E-1,9.839038E-2,1.8826719E-1,9.788973E-2,7.8003216E-1,-2.2995977E-2,2.0128961E-1,8.935444E-2,1.3761805E-1,1.2224255E0,6.785612E-1,2.7293226E-2,-9.2078424E-1,1.5639189E-1,2.5086972E-1,1.0095063E-1,-1.6250415E-3,3.3068082E-1,1.123044E-1,4.977109E-1,8.076696E-1,-4.7785655E-2,2.2666144E-1,-2.0358222E0,-3.0413312E-1,1.3325523E-1,2.9391643E-1,2.1184297E-1,4.143276E-1,6.878345E-2,1.2845895E-1,-2.4123152E-1,3.1069115E-2,6.037961E-1,2.5719985E-1,-1.572795E-1,1.2285415E-1,5.6529117E-1,3.4534526E-1,7.377497E-1,1.2027096E0,-2.1269803E-1,7.443392E-2,3.8799614E-1,-4.117221E-1,-2.2968388E-1,-3.5518748E-1,5.080779E-1,1.22210726E-1,2.355774E-1,7.461715E-1,1.6101052E0,2.0758718E-1,3.5104492E-1,1.0213535E0,-1.0354623E-2,8.413315E-2,9.9770576E-2,1.7978668E-1,-2.7897033E-1,-1.0354411E-1,1.4407234E-1,-3.4378942E-2,4.8725647E-1,8.774929E-1,2.2523266E-1,4.155136E-1,-4.5821074E-1,1.4826427E-1,1.8373485E-1,9.11928E-2,4.237072E-1,6.8426347E-1,4.9592945E-1,7.707074E-1,1.3037314E-1,-3.5555765E-1,1.7932734E-1,-4.1730127E-1,1.0868411E0,2.4040009E-1,-3.1964472E-1,-5.5712306E-1,-8.418528E-2,-2.4848495E-1,1.6229302E0,2.735376E-1,1.4017843E-1,-5.9315674E-2,3.1575647E-1,-2.1322588E-2,1.3515093E0,5.286424E-1,1.626705E-1,2.5191227E-1,-9.866933E-1,3.6946607E-1,8.508364E-1,1.4784093E0],"categories":[],"categories_nodes":[],"categories_segments":[],"categories_sizes":[],"default_left":[true,true,true,true,true,true,true,true,true,false,true,true,true,true,true,true,true,true,true,true,true,true,true,false,true,true,true,true,true,true,true,true,true,true,true,true,true,true,false,true,false,true,true,true,true,true,false,true,true,true,true,false,true,true,true,false,false,false,false,false,false,false,false,false,false,false,false,false,false,false,false,false,false,false,false,false,false,false,false,false,false,false,false,false,false,false,false,false,false,false,false,false,false,false,false,false,false,false,false],"id":11,"left_children":[1,3,5,7,9,11,13,15,17,-1,19,21,23,25,27,29,31,33,35,37,39,41,43,-1,45,47,49,51,53,55,57,59,61,63,65,67,69,71,-1,73,-1,75,77,79,81,83,-1,85,87,89,91,-1,93,95,97,-1,-1,-1,-1,-1,-1,-1,-1,-1,-1,-1,-1,-1,-1,-1,-1,-1,-1,-1,-1,-1,-1,-1,-1,-1,-1,-1,-1,-1,-1,-1,-1,-1,-1,-1,-1,-1,-1,-1,-1,-1,-1,-1,-1],"loss_changes":[9.285181E1,9.531055E1,3.298825E1,9.4698975E1,8.372978E0,3.1494022E1,2.5099396E1,2.4256482E2,2.413526E2,0E0,3.5440445E0,9.904905E0,2.482165E1,1.882608E1,3.413675E1,1.8043652E2,2.0362968E2,1.147384E2,1.2421588E2,5.564518E-1,1.791954E0,9.710638E0,1.8801552E1,0E0,1.3443232E-2,2.0955322E1,2.2329872E1,2.545018E1,3.9323334E1,1.141918E2,1.618418E2,1.6188324E1,1.6917003E2,3.826294E1,2.2746002E1,1.5132185E2,8.0989136E1,5.354576E-1,0E0,2.9521942E-1,0E0,1.0093614E1,1.43624325E1,1.4695002E1,3.1727934E-1,1.4643192E-2,0E0,3.7470352E1,1.6097855E1,1.5599419E1,1.205835E1,0E0,8.561844E0,2.345472E1,6.301895E0,0E0,0E0,0E0,0E0,0E0,0E0,0E0,0E0,0E0,0E0,0E0,0E0,0E0,0E0,0E0,0E0,0E0,0E0,0E0,0E0,0E0,0E0,0E0,0E0,0E0,0E0,0E0,0E0,0E0,0E0,0E0,0E0,0E0,0E0,0E0,0E0,0E0,0E0,0E0,0E0,0E0,0E0,0E0,0E0],"parents":[2147483647,0,0,1,1,2,2,3,3,4,4,5,5,6,6,7,7,8,8,10,10,11,11,12,12,13,13,14,14,15,15,16,16,17,17,18,18,19,19,20,20,21,21,22,22,24,24,25,25,26,26,27,27,28,28,29,29,30,30,31,31,32,32,33,33,34,34,35,35,36,36,37,37,39,39,41,41,42,42,43,43,44,44,45,45,47,47,48,48,49,49,50,50,52,52,53,53,54,54],"right_children":[2,4,6,8,10,12,14,16,18,-1,20,22,24,26,28,30,32,34,36,38,40,42,44,-1,46,48,50,52,54,56,58,60,62,64,66,68,70,72,-1,74,-1,76,78,80,82,84,-1,86,88,90,92,-1,94,96,98,-1,-1,-1,-1,-1,-1,-1,-1,-1,-1,-1,-1,-1,-1,-1,-1,-1,-1,-1,-1,-1,-1,-1,-1,-1,-1,-1,-1,-1,-1,-1,-1,-1,-1,-1,-1,-1,-1,-1,-1,-1,-1,-1,-1],"split_conditions":[9.5E0,5E-1,2.85E1,1.31E2,2.5E0,1.5E0,5E-1,6.35E1,1.38E2,3.6672765E-1,1.5E0,9.45E1,2.5E0,1.315E0,5.5E0,5E-1,6.85E1,1.5E0,1.47E2,4.5E0,4.5E0,1.39E2,5.815E2,-6.107467E-1,3.5E0,5E-1,8.165E2,1.5E0,1.5E1,1.5E0,1.45E1,5.55E1,9.65E1,9.95E1,2.05E-1,4.5E0,5.35E1,3.5E0,1.0360358E-1,2.5E0,3.6081287E-1,5E-1,8E0,2.5E0,3.5E0,2.5E0,-1.06556244E-1,1.355E2,1.25E1,2.25E0,1.5E0,4.8303157E-1,5.35E1,1.5E0,1.95E1,-3.106387E-3,2.5239946E-2,2.9931175E-2,5.393601E-2,-8.3691105E-2,-3.1063234E-2,4.3221705E-2,-1.0313683E-2,1.4617695E-1,2.6324788E-1,6.75698E-2,1.24654084E-1,-1.3746323E-1,4.4479284E-2,5.5120457E-2,2.735784E-2,1.2711217E-1,2.0527905E-1,1.4877884E-1,2.3121224E-1,3.9111942E-2,-1.066673E-1,5.3798202E-2,-1.2519039E-1,3.2605234E-1,7.212003E-2,-9.589342E-2,-1.6713692E-1,-2.5255585E-2,-7.454549E-2,4.8687908E-1,8.206128E-2,4.2053528E-2,-1.7794702E-2,9.472694E-2,-6.3967765E-3,4.0545282E-1,1.5859273E-1,4.880115E-2,7.557368E-2,-2.9600802E-1,1.1083982E-1,2.5525093E-1,4.435228E-1],"split_indices":[28,22,30,34,4,1,16,34,27,0,0,26,4,37,29,14,33,4,27,8,7,39,39,0,0,17,39,4,28,29,27,38,26,26,37,32,38,6,0,9,0,20,32,4,10,41,0,30,32,37,11,0,38,40,29,0,0,0,0,0,0,0,0,0,0,0,0,0,0,0,0,0,0,0,0,0,0,0,0,0,0,0,0,0,0,0,0,0,0,0,0,0,0,0,0,0,0,0,0],"split_type":[0,0,0,0,0,0,0,0,0,0,0,0,0,0,0,0,0,0,0,0,0,0,0,0,0,0,0,0,0,0,0,0,0,0,0,0,0,0,0,0,0,0,0,0,0,0,0,0,0,0,0,0,0,0,0,0,0,0,0,0,0,0,0,0,0,0,0,0,0,0,0,0,0,0,0,0,0,0,0,0,0,0,0,0,0,0,0,0,0,0,0,0,0,0,0,0,0,0,0],"sum_hessian":[2.91499E5,2.79511E5,1.1988E4,2.79307E5,2.04E2,6.96E2,1.1292E4,2.29915E5,4.9392E4,3.6E1,1.68E2,6.6E2,3.6E1,5.928E3,5.364E3,2.03923E5,2.5992E4,5.724E3,4.3668E4,7.2E1,9.6E1,4.8E2,1.8E2,1.2E1,2.4E1,5.076E3,8.52E2,4.332E3,1.032E3,9.4003E4,1.0992E5,3.12E3,2.2872E4,1.212E3,4.512E3,1.644E3,4.2024E4,4.8E1,2.4E1,8.4E1,1.2E1,2.04E2,2.76E2,1.44E2,3.6E1,1.2E1,1.2E1,1.44E2,4.932E3,7.56E2,9.6E1,1.2E1,4.32E3,9.36E2,9.6E1,1.5271E4,7.8732E4,7.0512E4,3.9408E4,2.448E3,6.72E2,8.388E3,1.4484E4,8.52E2,3.6E2,3.756E3,7.56E2,8.28E2,8.16E2,1.4376E4,2.7648E4,2.4E1,2.4E1,1.2E1,7.2E1,6E1,1.44E2,2.28E2,4.8E1,2.4E1,1.2E2,2.4E1,1.2E1,2E0,1E1,2.4E1,1.2E2,4.488E3,4.44E2,5.76E2,1.8E2,2.4E1,7.2E1,2.148E3,2.172E3,1.2E1,9.24E2,7.2E1,2.4E1],"tree_param":{"num_deleted":"0","num_feature":"42","num_nodes":"99","size_leaf_vector":"0"}},{"base_weights":[7.147378E-2,7.212407E-2,-3.783129E-1,7.756726E-2,1.9247882E-2,-4.6352422E-1,9.899756E-1,6.232978E-2,1.2947102E-1,7.986446E-3,1.4426884E-1,-9.494793E-1,-3.52945E-1,5.483912E-1,1.355408E0,-3.577733E-3,6.76595E-2,1.423949E-1,3.4523558E-2,-1.7173272E-2,6.670036E-2,1.2577566E0,1.0679582E-1,-1.2040704E0,-4.1250157E-1,-5.067271E-1,-2.2779942E-1,-1.389632E-1,2.9879058E-2,7.5064845E-2,2.3476895E-2,1.0347947E-1,2.0104912E-1,7.161841E-2,-5.2996177E-2,-2.687116E-4,-1.17832445E-1,4.548488E-1,5.1087394E-2,1.6297241E0,1.0423087E0,1.6240346E-1,-1.1703722E-1,-5.984303E-1,-1.3843205E0,-2.779167E-1,-5.153556E-1,-3.914873E-1,-5.59717E-1,-4.9814114E-1,-1.5724464E-1,3.6133114E-2,-1.8784255E-1,4.209735E-1,1.2631663E-2,9.379509E-2,4.6784826E-2,1.6038341E-2,2.1343935E-1,6.176788E-2,1.528018E-1,3.057901E-1,1.6127957E-1,1.15866765E-1,-6.2813625E-2,-9.584616E-2,2.664711E-1,-9.036756E-2,2.070061E-2,-5.9675545E-1,-1.0343802E-1,1.0953206E0,2.3729447E-1,3.3068654E-1,3.4215674E-2,8.670214E-1,1.4610258E0,9.778288E-3,2.3101947E-1,-5.059421E-1,-3.80702E-2,-4.2401397E-1,-2.6879692E-1,-1.9188972E-1,2.0929688E-1],"categories":[],"categories_nodes":[],"categories_segments":[],"categories_sizes":[],"default_left":[true,true,true,true,true,true,true,true,true,true,true,true,true,false,false,true,true,true,true,true,true,true,true,true,true,true,true,true,true,true,true,true,true,true,true,true,true,true,true,false,true,true,true,false,false,false,false,true,false,false,true,false,false,false,false,false,false,false,false,false,false,false,false,false,false,false,false,false,false,false,false,false,false,false,false,false,false,false,false,false,false,false,false,false,false],"id":12,"left_children":[1,3,5,7,9,11,13,15,17,19,21,23,25,-1,-1,27,29,31,33,35,37,39,41,43,45,47,49,51,53,55,57,59,61,63,65,67,69,71,73,-1,75,77,79,-1,-1,-1,-1,81,-1,-1,83,-1,-1,-1,-1,-1,-1,-1,-1,-1,-1,-1,-1,-1,-1,-1,-1,-1,-1,-1,-1,-1,-1,-1,-1,-1,-1,-1,-1,-1,-1,-1,-1,-1,-1],"loss_changes":[8.528967E1,8.3775635E1,4.954482E1,2.0871521E2,3.8250504E1,2.0998291E1,3.2909355E0,7.1666016E1,7.34892E1,3.682099E1,9.353998E1,9.483124E0,6.1392403E0,0E0,0E0,6.914793E1,6.1756836E1,1.2030859E2,2.3304155E1,2.9691172E1,4.5288483E1,4.15152E0,2.706597E1,4.5207443E0,2.0283937E-1,6.6632843E-1,3.3740454E0,2.5896542E1,8.256464E1,8.562561E1,3.8285877E1,6.519296E1,8.7530334E1,2.9993141E1,2.927929E1,2.8230076E1,1.7234867E1,4.00086E1,3.390149E1,0E0,2.3296585E0,1.8230415E1,1.3278458E1,0E0,0E0,0E0,0E0,8.15711E-2,0E0,0E0,1.8814967E0,0E0,0E0,0E0,0E0,0E0,0E0,0E0,0E0,0E0,0E0,0E0,0E0,0E0,0E0,0E0,0E0,0E0,0E0,0E0,0E0,0E0,0E0,0E0,0E0,0E0,0E0,0E0,0E0,0E0,0E0,0E0,0E0,0E0,0E0],"parents":[2147483647,0,0,1,1,2,2,3,3,4,4,5,5,6,6,7,7,8,8,9,9,10,10,11,11,12,12,15,15,16,16,17,17,18,18,19,19,20,20,21,21,22,22,23,23,24,24,25,25,26,26,27,27,28,28,29,29,30,30,31,31,32,32,33,33,34,34,35,35,36,36,37,37,38,38,40,40,41,41,42,42,47,47,50,50],"right_children":[2,4,6,8,10,12,14,16,18,20,22,24,26,-1,-1,28,30,32,34,36,38,40,42,44,46,48,50,52,54,56,58,60,62,64,66,68,70,72,74,-1,76,78,80,-1,-1,-1,-1,82,-1,-1,84,-1,-1,-1,-1,-1,-1,-1,-1,-1,-1,-1,-1,-1,-1,-1,-1,-1,-1,-1,-1,-1,-1,-1,-1,-1,-1,-1,-1,-1,-1,-1,-1,-1,-1],"split_conditions":[3.5E0,1.65E1,5E-1,4.5E0,3.3E1,1.8E-1,4.5E0,2.15E1,2.76E2,2.5E0,3.75E1,4.5E0,6E0,1.6451737E-1,4.066224E-1,3.5E0,5.5E0,2.3E1,5.5E0,1.5E0,4.25E1,3.5E0,3.26E2,5E-1,1.5E0,2.05E2,4.35E-1,1.5E0,3.25E1,4E1,7E0,4.55E1,5.7E1,3.5E0,9.855E2,2.5E0,3E0,5E-1,1.55E1,4.8891726E-1,2.5E0,2.95E1,5E-1,-1.7952909E-1,-4.1529617E-1,-8.3375014E-2,-1.5460669E-1,3.8E1,-1.679151E-1,-1.4944234E-1,4E0,1.0839934E-2,-5.6352768E-2,1.2629206E-1,3.7894992E-3,2.8138528E-2,1.4035448E-2,4.8115025E-3,6.403181E-2,1.8530365E-2,4.584054E-2,9.173703E-2,4.8383873E-2,3.476003E-2,-1.8844089E-2,-2.8753849E-2,7.994133E-2,-2.711027E-2,6.2101833E-3,-1.7902663E-1,-3.1031407E-2,3.2859617E-1,7.1188346E-2,9.920596E-2,1.0264702E-2,2.601064E-1,4.3830776E-1,2.9334866E-3,6.9305845E-2,-1.5178263E-1,-1.142106E-2,-1.272042E-1,-8.063908E-2,-5.756692E-2,6.278907E-2],"split_indices":[1,29,16,29,29,37,6,38,27,0,29,6,40,0,0,26,5,33,5,35,30,5,39,3,0,30,37,12,26,27,35,38,33,31,39,40,40,20,38,0,7,38,3,0,0,0,0,30,0,0,4,0,0,0,0,0,0,0,0,0,0,0,0,0,0,0,0,0,0,0,0,0,0,0,0,0,0,0,0,0,0,0,0,0,0],"split_type":[0,0,0,0,0,0,0,0,0,0,0,0,0,0,0,0,0,0,0,0,0,0,0,0,0,0,0,0,0,0,0,0,0,0,0,0,0,0,0,0,0,0,0,0,0,0,0,0,0,0,0,0,0,0,0,0,0,0,0,0,0,0,0,0,0,0,0,0,0,0,0,0,0,0,0,0,0,0,0,0,0,0,0,0,0],"sum_hessian":[2.91499E5,2.91079E5,4.2E2,2.63911E5,2.7168E4,3.96E2,2.4E1,2.04019E5,5.9892E4,2.4924E4,2.244E3,7.2E1,3.24E2,1.2E1,1.2E1,1.5264E4,1.88755E5,5.2716E4,7.176E3,1.7448E4,7.476E3,7.2E1,2.172E3,4.8E1,2.4E1,1.44E2,1.8E2,3.024E3,1.224E4,1.61659E5,2.7096E4,3.1692E4,2.1024E4,5.04E3,2.136E3,1.494E4,2.508E3,2.88E2,7.188E3,2.4E1,4.8E1,1.74E3,4.32E2,1.2E1,3.6E1,1.2E1,1.2E1,4.8E1,9.6E1,3.6E1,1.44E2,6.6E2,2.364E3,5.16E2,1.1724E4,9.7248E4,6.4411E4,2.6076E4,1.02E3,1.7172E4,1.452E4,5.784E3,1.524E4,3.792E3,1.248E3,1.884E3,2.52E2,2.82E3,1.212E4,7.2E1,2.436E3,7.2E1,2.16E2,4.08E2,6.78E3,3.6E1,1.2E1,5.4E2,1.2E3,7.2E1,3.6E2,3.6E1,1.2E1,1.32E2,1.2E1],"tree_param":{"num_deleted":"0","num_feature":"42","num_nodes":"85","size_leaf_vector":"0"}},{"base_weights":[5.00353E-2,7.7507295E-2,4.0877953E-2,4.481836E-2,1.032368E-1,3.543018E-2,8.4456414E-2,3.6816437E-2,2.8256655E-1,7.673804E-2,1.354876E-1,6.1148524E-2,2.7221909E-2,6.7803234E-2,1.1268649E-1,5.9834328E-2,-2.8175027E-3,2.5529885E-1,5.4642725E-1,1.434825E-1,4.6691786E-2,6.8882175E-2,1.6438128E-1,1.6761278E-1,2.8936507E-2,1.722906E-1,2.3105254E-2,6.2577575E-2,1.9805442E-1,1.3837686E-1,3.4400202E-2,2.856054E-2,9.591554E-2,-3.3523176E-2,4.8765518E-2,4.4125232E-1,2.156004E-1,8.4003896E-1,4.5424452E-1,7.417986E-2,2.607393E-1,5.911914E-1,3.870926E-2,6.177355E-2,7.800435E-1,1.1944487E-1,2.2030869E-1,6.7389496E-2,3.024058E-1,8.257346E-3,8.236113E-2,5.931222E-2,7.033484E-1,-1.139742E-2,4.0757734E-2,6.5527655E-2,-1.8835494E-1,4.086095E-1,1.17214754E-1,1.0005932E-1,1.6630568E-1,2.7519159E-2,1.9207233E-1,2.3924744E-2,2.766078E-1,1.6566467E-2,1.1049591E-1,-1.130121E0,-3.2444444E-2,4.122037E-2,4.187029E-1,5.820776E-1,2.0771706E-1,1.8534626E-1,3.4119987E-1,3.990807E-1,9.8045576E-1,1.0743854E0,3.8574123E-1,3.1048464E-2,1.923584E-1,1.8333611E-1,4.3408275E-1,8.6707515E-1,1.814801E-1,-3.9106324E-1,4.501085E-2,-4.611572E-2,1.1580417E-1,2.931771E-1,1.6870967E0,2.7262485E-1,9.922444E-2,1.7179644E-1,3.4923315E-1,8.8383175E-2,-1.4622244E-1,8.727349E-1,2.4861103E-1,4.551447E-2,-4.887492E-2,6.930732E-2,5.0019836E-1,-9.461476E-2,1.0446421E-1,1.3092648E-2,8.3195996E-1,-1.6600467E-2,8.812526E-1,3.8795218E-2,4.6044382E-1,2.753769E-1,6.30823E-2,-4.0323368E-1,-8.04753E-3,2.8980052E-1,7.918022E-1,5.9215352E-2,2.651031E-1,9.31197E-2,4.4004998E-1,1.3863747E-1,2.3233128E-1,3.073816E-2,-2.8319475E-1,1.5436834E-1,7.130521E-1],"categories":[],"categories_nodes":[],"categories_segments":[],"categories_sizes":[],"default_left":[true,true,true,true,true,true,true,true,true,true,true,true,true,true,true,true,true,true,true,true,true,true,true,true,true,true,true,true,true,true,true,true,true,true,true,true,true,true,true,true,true,true,true,true,true,true,true,true,true,true,true,true,true,true,true,true,true,true,true,true,true,true,true,false,false,false,false,false,false,false,false,false,false,false,false,false,false,false,false,false,false,false,false,false,false,false,false,false,false,false,false,false,false,false,false,false,false,false,false,false,false,false,false,false,false,false,false,false,false,false,false,false,false,false,false,false,false,false,false,false,false,false,false,false,false,false,false],"id":13,"left_children":[1,3,5,7,9,11,13,15,17,19,21,23,25,27,29,31,33,35,37,39,41,43,45,47,49,51,53,55,57,59,61,63,65,67,69,71,73,75,77,79,81,83,85,87,89,91,93,95,97,99,101,103,105,107,109,111,113,115,117,119,121,123,125,-1,-1,-1,-1,-1,-1,-1,-1,-1,-1,-1,-1,-1,-1,-1,-1,-1,-1,-1,-1,-1,-1,-1,-1,-1,-1,-1,-1,-1,-1,-1,-1,-1,-1,-1,-1,-1,-1,-1,-1,-1,-1,-1,-1,-1,-1,-1,-1,-1,-1,-1,-1,-1,-1,-1,-1,-1,-1,-1,-1,-1,-1,-1,-1],"loss_changes":[7.332965E1,6.1287506E1,5.1900208E1,6.10542E1,3.483786E1,4.102307E1,1.141301E1,2.8330406E1,7.3791428E0,4.488867E1,3.5381714E1,1.6123659E2,8.797459E1,1.0389259E1,1.8120201E1,2.2164612E1,1.8073837E1,6.9104385E0,2.2438107E0,5.644966E1,6.708246E1,2.8090061E1,3.2207672E1,1.4751578E2,3.9878433E1,2.4385036E2,8.7251045E1,1.0889866E1,9.977594E0,7.2444153E0,2.4119802E0,1.2096045E1,1.0550606E1,8.424882E0,1.18678055E1,5.3384476E0,2.915886E0,9.7091484E-1,2.8141737E0,2.226372E1,3.4550568E1,2.5048935E1,4.1229046E1,3.2136578E1,2.379414E1,2.2007614E1,3.567148E1,2.8108315E1,1.4266321E2,5.539862E1,5.4907204E1,2.3313602E1,6.3285614E1,2.2521246E2,7.803781E1,7.4356956E0,6.622018E0,7.1913967E0,3.6468673E0,6.7140064E0,7.1343613E0,2.145107E0,1.7167275E0,0E0,0E0,0E0,0E0,0E0,0E0,0E0,0E0,0E0,0E0,0E0,0E0,0E0,0E0,0E0,0E0,0E0,0E0,0E0,0E0,0E0,0E0,0E0,0E0,0E0,0E0,0E0,0E0,0E0,0E0,0E0,0E0,0E0,0E0,0E0,0E0,0E0,0E0,0E0,0E0,0E0,0E0,0E0,0E0,0E0,0E0,0E0,0E0,0E0,0E0,0E0,0E0,0E0,0E0,0E0,0E0,0E0,0E0,0E0,0E0,0E0,0E0,0E0,0E0],"parents":[2147483647,0,0,1,1,2,2,3,3,4,4,5,5,6,6,7,7,8,8,9,9,10,10,11,11,12,12,13,13,14,14,15,15,16,16,17,17,18,18,19,19,20,20,21,21,22,22,23,23,24,24,25,25,26,26,27,27,28,28,29,29,30,30,31,31,32,32,33,33,34,34,35,35,36,36,37,37,38,38,39,39,40,40,41,41,42,42,43,43,44,44,45,45,46,46,47,47,48,48,49,49,50,50,51,51,52,52,53,53,54,54,55,55,56,56,57,57,58,58,59,59,60,60,61,61,62,62],"right_children":[2,4,6,8,10,12,14,16,18,20,22,24,26,28,30,32,34,36,38,40,42,44,46,48,50,52,54,56,58,60,62,64,66,68,70,72,74,76,78,80,82,84,86,88,90,92,94,96,98,100,102,104,106,108,110,112,114,116,118,120,122,124,126,-1,-1,-1,-1,-1,-1,-1,-1,-1,-1,-1,-1,-1,-1,-1,-1,-1,-1,-1,-1,-1,-1,-1,-1,-1,-1,-1,-1,-1,-1,-1,-1,-1,-1,-1,-1,-1,-1,-1,-1,-1,-1,-1,-1,-1,-1,-1,-1,-1,-1,-1,-1,-1,-1,-1,-1,-1,-1,-1,-1,-1,-1,-1,-1],"split_conditions":[3.5E0,5.5E0,1.15E1,1.315E2,5E-1,5.75E1,3.5E0,3.5E0,2.25E-1,6.8E1,5E-1,2.5E0,6.75E1,9.5E0,2.65E1,2.5E0,5E-1,1.5E0,1.5E0,9.85E1,6.4E1,2.65E1,9.95E1,5.5E0,8.85E1,7.5E0,9.75E1,1.105E2,5E-1,1.795E2,9.5E0,5.35E1,1.5E0,1.5E0,1.05E1,1.5E0,2.5E0,2.5E0,3E0,4.5E0,5E-1,2.5E0,7.35E1,2.5E0,5.5E0,9.5E0,1.235E2,1.5E0,1.15E1,6.5E0,9.5E1,8.85E1,1.95E1,2.65E1,4.56E2,5E-1,3.65E-1,3.3E1,3.61E2,4.56E2,6.5E0,2.235E2,3.5E0,7.177423E-3,8.298235E-2,4.96994E-3,3.3148773E-2,-3.3903632E-1,-9.733333E-3,1.2366111E-2,1.2561087E-1,1.746233E-1,6.231512E-2,5.560388E-2,1.02359965E-1,1.19724214E-1,2.9413673E-1,3.2231563E-1,1.1572237E-1,9.31454E-3,5.7707522E-2,5.5000834E-2,1.3022482E-1,2.6012257E-1,5.444403E-2,-1.1731898E-1,1.3503255E-2,-1.3834716E-2,3.4741253E-2,8.7953135E-2,5.06129E-1,8.178746E-2,2.9767333E-2,5.1538933E-2,1.0476995E-1,2.6514953E-2,-4.3866735E-2,2.618205E-1,7.4583314E-2,1.3654342E-2,-1.4662476E-2,2.0792197E-2,1.5005952E-1,-2.8384428E-2,3.1339265E-2,3.9277948E-3,2.49588E-1,-4.9801404E-3,2.6437578E-1,1.1638566E-2,1.3813315E-1,8.2613066E-2,1.892469E-2,-1.2097011E-1,-2.4142591E-3,8.694016E-2,2.3754068E-1,1.7764606E-2,7.953093E-2,2.7935913E-2,1.32015E-1,4.1591242E-2,6.9699384E-2,9.221449E-3,-8.495843E-2,4.6310503E-2,2.1391563E-1],"split_indices":[41,27,41,33,39,26,29,13,37,26,14,0,25,35,29,7,16,4,7,25,25,35,25,40,27,27,26,38,34,30,32,38,12,30,28,5,5,6,0,29,14,4,26,29,28,39,27,35,30,34,25,26,38,35,27,2,37,33,39,27,40,33,12,0,0,0,0,0,0,0,0,0,0,0,0,0,0,0,0,0,0,0,0,0,0,0,0,0,0,0,0,0,0,0,0,0,0,0,0,0,0,0,0,0,0,0,0,0,0,0,0,0,0,0,0,0,0,0,0,0,0,0,0,0,0,0,0],"split_type":[0,0,0,0,0,0,0,0,0,0,0,0,0,0,0,0,0,0,0,0,0,0,0,0,0,0,0,0,0,0,0,0,0,0,0,0,0,0,0,0,0,0,0,0,0,0,0,0,0,0,0,0,0,0,0,0,0,0,0,0,0,0,0,0,0,0,0,0,0,0,0,0,0,0,0,0,0,0,0,0,0,0,0,0,0,0,0,0,0,0,0,0,0,0,0,0,0,0,0,0,0,0,0,0,0,0,0,0,0,0,0,0,0,0,0,0,0,0,0,0,0,0,0,0,0,0,0],"sum_hessian":[2.91499E5,7.2873E4,2.18626E5,3.2097E4,4.0776E4,1.94334E5,2.4292E4,3.1053E4,1.044E3,2.2386E4,1.839E4,4.7016E4,1.47318E5,1.5281E4,9.011E3,1.9644E4,1.1409E4,9.48E2,9.6E1,6.948E3,1.5438E4,5.565E3,1.2825E4,1.092E4,3.6096E4,